function [Y,Xf,Af] = langerNetworkFunction(X,~,~)
%MYNEURALNETWORKFUNCTION neural network simulation function.
%
% Auto-generated by MATLAB, 27-Apr-2022 09:57:47.
%
% [Y] = myNeuralNetworkFunction(X,~,~) takes these arguments:
%
%   X = 1xTS cell, 1 inputs over TS timesteps
%   Each X{1,ts} = 2xQ matrix, input #1 at timestep ts.
%
% and returns:
%   Y = 1xTS cell of 1 outputs over TS timesteps.
%   Each Y{1,ts} = 100xQ matrix, output #1 at timestep ts.
%
% where Q is number of samples (or series) and TS is the number of timesteps.

%#ok<*RPMT0>

% ===== NEURAL NETWORK CONSTANTS =====

% Input 1
x1_step1.xoffset = [0;0];
x1_step1.gain = [0.2;0.2];
x1_step1.ymin = -1;

% Layer 1
b1 = [-16.571988301237364993;-8.6697683957639330998;7.9498956554398674257;-8.9563436780768928003;-6.8249492268604647904;8.3324317616897403127;8.174973335725798762;-6.3339073684633211414;-12.516127293741403648;-23.404809356448538438;12.048567007558567354;-6.7862478735150659759;-3.7457787162105131706;7.3695718640019745038;-9.9636819410988497481;4.3503448182838875269;9.7985254868158779828;-8.2505490347715024768;-1.2807081910000783775;-1.6942822055605668563;-0.48220377519789769938;-0.25414659929627431145;1.2043369902457889964;7.4074477541971157635;3.646109655876822675;7.6659393697629782949;6.7992704559335690462;-7.8130346856598462679;14.342810965025964975;-8.6599782852545725831;9.9652561063879812053;-7.1872922611441305563;-5.8003979445596778319;-9.376915577374926869;-6.5839227282772290195;21.851904397706789496;7.5140412743803821627;-4.2545465779071873769;15.630366217117014571;-15.197714068748870986];
IW1_1 = [13.8079231324124585 3.4250255491928189855;8.7833156186254690567 -2.1972821366235080198;-7.2102334640766931884 5.1379852960113856497;8.3765302481579215765 6.316572582989289586;1.9709192637884938026 -9.6321908783560186151;-10.753819522490008609 -2.1274215465643528944;-10.586904527446835189 -4.1005334693298767235;3.6640088754195359044 9.3942980915234759465;15.849494673244313603 11.482600519106886949;28.62838206964088883 25.117213146898688336;-24.543379922052352526 -21.980759118422554366;15.600826175517186201 10.487736318671426972;13.027177969639636146 7.4868812534913482537;-8.9343850525250072536 -17.397016469279826367;-2.1384702069199583718 -14.573469385782697572;-17.758540353293202685 -8.9447037645659595029;5.7995494863685204123 16.013902531997356249;19.313937822785934628 7.8742364991114932593;11.804637907300678634 5.7850676046541265052;13.558955415295381286 1.4084606493978024666;5.9539992557301992804 8.8152086688418638261;-7.1150503648873977269 -3.4144863074784308488;8.3805779251947711828 -0.32145424573056713413;21.211191012124917421 16.854852454681868323;5.1959485711774178185 9.5665781423997504618;12.707650490550925326 16.096147890920981638;15.348041206261914482 8.3440021250131550801;-8.3447128981274918402 -14.299287416230196612;-1.860159234984752219 -13.54329840830827969;-12.510695688528157277 -10.639916277706355174;10.341660211143475223 13.336397945734594472;-9.1749930637887882057 -5.449760550644163537;-5.2719380939633895267 7.0734748263801039414;-9.9765525299933290881 -6.62437993158423577;-6.0593815121264329449 6.4563042766961178387;17.116748658898682578 5.3588292636780820999;4.8040959978015305154 -7.4307375759660025949;-2.3740182997553032074 -4.2663776147442158404;12.511136674892055609 6.1469762714438971329;-12.952552724113727933 -4.6198989047475107483];

% Layer 2
b2 = [-0.34222163078265022129;-0.2367951017018553872;0.77160910021119855084;-0.10278459656781209486;-0.33456845042663929668;0.34179753201159140952;0.39619929065939407664;-0.056227538771632189218;-0.40130482731412342456;0.29507920011995225629;0.16640062185583467946;1.3494422581724758725;-0.17580283790154571655;0.44377922063550767628;0.16190727392994411216;-0.63629174291356571658;0.2367604508264935792;-0.94972439537789465902;-0.60741800896139108712;-1.0434569880026842714;0.61547342509349833861;-0.051518592690806344625;-1.008010190541992479;-0.15963968732961855701;-0.67148550197977230347;0.22717066891765849701;0.71466328671867374034;-0.24550499339792444808;0.95203661208140699657;-0.066017725648232869484;-0.2198355882280415563;0.32062401878674795519;0.7046416173840072128;-0.21369473683856748947;-0.94530755351591300162;-0.36334915771701936649;-0.4910443750749581282;-0.76918285519280571449;-1.0902133438090702011;0.79920886306415250822;0.41055888222920261521;0.3607119075180127421;0.94547256416175928795;0.60015617922436992338;0.52793259146150517402;-0.10173754989879268962;-0.052614371212929236798;-0.58567538282723896614;-0.62182124805857219574;0.11933287038416152959;-0.3864755796518041242;0.13801580057860712847;0.056195596325789999581;0.55333141130080099046;-0.32632828336659186474;-0.090139160608932802909;0.38772417689297977716;-0.0064433676769362138725;0.4028467465586891838;-0.31357583255044207959;0.013238997098163892557;0.6338527767204490404;0.32894861387788010276;-0.38703136153908024308;-0.29261349124494329121;-0.64778439842610591182;0.22480812974258898573;0.36418824292462603776;-0.97037167063640739073;-1.0984919806199491266;0.020090271749790424016;0.46199874292337483883;0.1189548002743354288;0.23568971878119124308;0.96483778415407661644;0.3412187659513368776;-0.58685563722786315832;0.5947703761474332218;-0.17530963493652909624;-0.1047077180952716291;1.0157848605872157322;0.046490156992681296033;0.50013605589465282009;-0.86085154589775181311;-0.46900216648073866921;0.34214164447530026614;-0.68446784451189790488;0.26032580957869982941;-0.21990343913686113964;0.46405893973358292026;0.095641435682421518938;0.23321172400087469834;-0.15821620433312902354;-0.14730417605931839242;1.0222394950484328113;0.3526776532247517526;-0.18873346263202803175;-0.36962924573725558508;0.63258208266501403383;-0.37535475258178646607];
LW2_1 = [-0.006674848626503437389 0.12460905408270658845 -0.94371840094923009623 0.056909858582746393474 -1.3542416557951868494 0.026586539595602646374 0.049837500998394221319 -0.0012656802209223758093 0.05825423845895881525 -0.029727806028015529849 1.5001457304339160803 2.4293882246633189403 -0.13616812268585301582 0.49290269773210138027 4.6211500264275615635 1.8011309471883114597 3.9775392373891031994 -0.25170963255149653159 -1.9512407001063758472 4.2483573584253555566 -3.0556795775759506562 -3.7355126867848964523 -0.98480097694658186303 0.27189719728099465135 -0.70769006445506887903 1.6237135684231751576 -1.8693406794042859431 -1.7184755120475978529 -0.0049786263797619422639 2.5302869769339153549 1.301381592480093774 7.4448389819957876412 0.045872403375167715434 -8.4885745171449435986 -0.56765265101842699025 0.52237360793131959458 0.082552860900454091975 1.2592307947227481257 -0.45633773539643968098 -0.17973652391719127652;0.0062785474517477717765 -0.33814802253854064906 0.34484477359522475171 -0.061293434748869453366 1.9259799277483955482 -0.021810706178688049617 -0.15544477535314701888 -0.32962922076301898189 0.27450554814598238096 -0.094312124137102659738 1.4080217142240094574 4.0972502391637917185 -1.8025199475356339374 2.6697198672987401125 5.4045882609807476271 0.46986215272995263126 -0.25970006206355139566 0.59184204872137469167 -4.5791799340466408097 5.0291027574573945458 -0.40526381396001376345 -3.3329162039402744355 -2.1837129841030615829 -0.09998005158926961955 1.7176446394034323717 -0.62635797077677934919 0.047729214751766599334 -0.22830654269412753443 0.0015829520243934671643 2.2950573189571423782 2.2051524726378786134 1.9634715350830098668 -0.41792278610181099463 -4.4332400071543629494 0.43461701675242864207 1.3209571169503635524 -0.51409178835443070099 -3.0456355266936339099 -0.022784283931599223771 -0.18923039068020075515;0.0042117921503132694366 0.19370101578592249791 0.29689562635294536319 -0.072863187769614590206 4.6737579460663312148 -0.02583552803040844309 -0.17009634496362463496 -0.34022446913738541019 0.27750307333819451694 -0.11449403155197669657 0.96736864837522107408 4.47693828306726882 -3.1197047159317978782 3.6411917688955273142 0.6234056837313085575 -1.0018177167068553768 -0.056687147620088973454 1.0227600785236401482 -5.9884674898740533067 4.5539807594160404136 2.4722663406956701948 -1.827430419010966034 -2.6715401447197977269 -0.2220676959798215111 3.1470315080280375497 -2.6677989304670872706 2.3688810610891262165 2.8181812409065916114 0.007011669791648647565 -1.4916333827433363446 -1.8011708484181012668 -2.7011169121575298036 0.38720207360174468958 3.6461666737500491031 -0.53555056553084023907 0.84681632736893486246 0.061051774259258069499 -4.9669445696937994938 0.42474317925962568054 -0.66023950606030079591;0.013191799433283911067 -0.52163687351430987338 -0.16269662350921698657 -0.116455682480019862 2.1431374169666006502 -0.047032041066738902724 -0.21193920997936149808 -0.35675433538610923367 0.25246369866256929138 -0.099433091115178978692 0.27461694078762100002 2.9348516439667173827 -2.9545685119920288564 2.9320822082658728469 -4.5212627957545734603 -1.8580808468134681899 3.737498469292437786 1.0114227018617603093 -4.717992918989497575 2.3925046661132540748 3.7731182154168561027 0.14714441917417248051 -1.8518379607474040327 0.040473220565338904886 1.6747046389636721653 -1.5838781334125284772 2.0494287905356616264 3.0941772082273586442 0.0060718111651571178913 -3.8383392708473751398 -5.7942238962230590005 -1.7864597927839451774 0.44816218904027893544 6.3649240421479680307 -0.6700159453705796242 -0.52251380672505165492 0.46065748128232769654 -1.0873057570999702381 0.26174150708648208363 -0.61749661058463778396;0.01835346751379889757 0.39453606835767868199 0.70988188975277199955 -0.21594870105251601222 -2.5286983195690089232 -0.087210602693295405374 -0.36481881520750608638 -0.56237687724867457817 0.35358288422986045019 -0.10480637440828806384 -0.31664774208810819722 2.0219464948167158447 -2.7473215556044490171 2.989941746063535799 -6.3539179379213388543 -2.5394893651055583383 6.0555678514288793224 1.280288140643957906 -3.8764011579187216405 0.63351362494931218183 4.930517903180438033 1.7804457911667732617 -0.83647869302401645086 0.39062604782707754936 -0.72816385216706036587 0.75329910180404968667 0.47754720121771399022 0.80309226268949185368 0.024063944867594468796 -2.6868131871080778161 -6.3684836271493310278 0.75845566378202744495 0.73122770369488165887 4.3643092237570906278 -0.14538380081288845846 -1.4723812006374508154 0.57901378004924886067 3.891728006380677396 -0.1682868366293273632 0.034520367648106758951;0.015916298941851689253 -0.140241697586216435 -0.24940571611324788281 -0.16009229741486746823 -5.5552820833342089202 -0.066186209044682725589 -0.25592475472323156227 -0.37052608844261791798 0.21583690155987175774 -0.059109226221292020254 -0.70580858494516762747 0.8738830781868894837 -1.9129972931400132108 2.1974937899096813609 -2.9349547833177176415 -2.4031674603843269367 2.453664931920940262 1.0383218327017018634 -2.1017705709528886615 -1.0670493865296337699 4.6475817626445508068 2.7964421052389751843 0.35352797016269399411 0.48864505268931024418 -2.0986653324201376414 2.30487658430296527 -1.3629551088121387714 -2.900824671518696718 0.014223507341187486067 1.774658319708564358 -1.3483737489123501785 1.2437994577383568728 1.0561512764995919511 -0.42638897005391701578 -0.0051004703534169009566 -1.1244024493802431408 -0.10843759886068732312 5.5217733430153090879 -0.46897449705945654097 0.9705951259306518919;0.0029840600415649994569 0.22413861712774593715 -0.29899146768246354089 -0.044655404198146772532 -4.5658123503337408877 -0.019137830952810481328 -0.053635441636040462332 -0.043454951083001326639 0.0026122773508083611815 -0.011248676218661499485 -0.83716651741650827123 -0.19997641493718054662 -1.3195562103619429273 0.9278204967379033441 1.0049800598005524943 -2.1360733716399189497 -3.1091942785887365375 0.53846925692765867932 -0.57805096248160092731 -2.0246828664628924166 3.812613767174206636 2.9473081716443099154 0.50388698637389106594 0.27359659675742664664 -1.1242391518642629311 1.8098011613525430974 -1.8439552105195315956 -4.3051339561331678496 0.0061976303595431114085 4.4834686051843686272 3.3705872433871801874 -1.272927458036996029 0.47461527377512369164 -2.173954092945757921 0.016904473998078879682 -0.12777835363582978889 -0.70050518550099716286 3.0542185128781667025 -0.32269730393270801283 1.3807166718041150588;0.0027834059181702361027 0.49513611709792354487 0.40614206269779867808 -0.051383298561711560071 -1.4096560247586586989 -0.022315500957388254011 -0.055784177226902716129 -0.031706486606391651173 -0.017677634020528229519 7.9558087489223737465e-05 -0.93502644047741600986 -1.0644787296563968937 -0.8691924421737026174 0.10177633375003804217 2.6634250640271321942 -2.0236682082522161608 -7.2990162385413333013 0.31758967500577173215 0.528391339466897203 -2.693556439658134849 3.0610302966237208366 2.7246201039836726032 0.055430340130373539909 -0.13870047284767744733 0.82867763109055614379 0.16133263338568654133 -0.910300034229225008 -2.9715363442270827932 0.0096805236819118307273 3.9689525994776388984 5.1123811491376303096 -5.0402210620581850975 -0.068116331144140396248 -0.21749662454917587096 0.55861852284597579565 0.66745082839677738473 -0.026820146186050972809 -0.7986580537727493434 0.039157002742636497217 1.1999513415590370435;0.012596170684286539174 0.19559487837041322766 0.94569201824039983428 -0.13241539400995372411 1.8657699064803030531 -0.056273475451939114489 -0.18707365982288079453 -0.22740108054784691216 0.094435838881350486762 -0.0070633688921567161154 -1.0147233173445060483 -1.4196680328655650882 -0.32356106904974052396 0.052904128393599120228 1.2957118770807587449 -1.7889832201092459307 -8.4592147743713770325 0.40693002624174268167 1.2441154416589774723 -3.1567227987394677058 2.4226982235139087329 2.4655179244955336415 -0.064080111580140527994 -0.50778572410226152645 2.0776524094709829527 -1.6717035916556939323 0.99006841097970854637 -0.022998530706785185601 0.015432219331563851519 1.0742804128757459381 3.7290851226366426019 -8.0594545199894511711 0.036024915059255126215 4.0236573144729526064 -0.28879363892334031227 0.81440606572109985883 -0.23664636194699878446 -3.6708572328665165507 0.44830537470013470669 0.66887181845894982946;0.016096055609231694344 -0.87809141598695850117 0.21195530090104680587 -0.11239175195462160206 3.2223066369369428585 -0.049462627962515999525 -0.15493878128355786927 -0.18429647451464015173 0.072262906531841974989 0.0043977911953781423371 -0.95979154097443952764 -1.2613744037216760852 0.022773016283817545946 0.17410659153359508977 -1.7886790563699836998 -1.3852370481517457534 -6.0078611953033425053 0.39125101870956752181 1.3984156891730576966 -3.0802142718721854386 2.010922928233310536 2.3461604989326083626 0.36282386398471205835 -0.50947394293184933289 1.7388718807696734725 -2.3899005764656431339 2.2840439370844669575 2.1453422764528320421 0.004108687665844850366 -1.8041161440273052463 0.62069090014448091708 -8.0568939884015549069 0.91424029898705971853 7.2357140656010701107 -0.23200050258998547448 0.29382443860132811952 0.29329717908494051803 -3.75765931809637177 0.58177802861068850238 0.032762731113344739642;-0.0027185464884143715168 0.50100688712001284486 -0.23380162015993788405 -0.00079181363757599172032 2.2212571120878079611 -0.00090436852855353753837 0.019958811423362639997 0.071616199520258050359 -0.074522707115968797598 0.025140666280305711683 -0.78986440682741376751 -1.0768694836319647745 -0.032672640415511655654 -0.098738041242857871316 -4.0827425135070534168 -1.1041483356735775079 -2.167267936756516189 0.14393754661682653384 1.1642778810765950226 -2.5543721027338457397 1.8121296602755112559 2.230788017010566282 0.64319126184579100691 -0.24325008186989088843 0.80263565226407107556 -1.8450922322658438457 2.0930792635116368672 2.4073601259042907152 0.0042567669277273848666 -3.0267046164071018666 -2.0254778642297712743 -5.5839966184500635649 0.14087870282315226311 7.4746020114927604894 -0.96475319825207284108 -0.40622405711827841435 0.75074562104043729427 -1.7590939291726008786 0.43862101369557948694 -0.21167751207295196214;-0.0058393675086243343117 0.29936402245952442591 -0.15315460899434038544 0.046015120750484722612 0.65560808262203362773 0.017620115775785510914 0.10254138810892815536 0.20302792429688931719 -0.15604717717782545794 0.032165746698373874624 -0.7674288125268047267 -1.244675425415479264 -0.27624517226327049979 -0.48702621056191724991 -5.9012665804800956693 -1.2479762723494078891 1.1278788799558108202 -0.02724573309816242378 1.0128783595245984817 -2.4098567463733449046 2.0592140136916863291 2.4215138138048044603 0.65457468955273645506 0.034574815720139734365 -0.006688495349161011766 -0.91096849432535220714 1.4077078750179108368 2.0747148037583840186 -0.0017040139807935218014 -3.6746562320803093371 -4.1396369191992059555 -3.2741072240290929329 0.29893710303151305174 7.0958128055266005418 0.35008983014559769131 -1.0172902324761368131 0.56857156355943450077 0.60379076773739270845 0.27402126072743138163 -0.25725078798320238915;0.0047930711904278933827 -0.20896049876974198689 1.0235944382575818956 -0.030273352171815315348 -1.6676413800780611751 -0.014867242269432600493 -0.0196478607339886438 0.020390871245196826034 -0.047429089544720755278 0.0081372875104735939433 -0.7630386152759941476 -1.263880692831667707 -0.49750447964671451473 -0.39842815941147591285 -6.5562387493131906169 -1.487558818393608373 3.8331425003737580326 0.096410177603829916304 0.69812552778413727861 -2.2366552595389657121 2.3347283353374335135 2.4356702181504101823 0.49444833983961483659 0.24309763970546169332 -0.85843505360724337017 0.44251011226347752858 0.32067946434078187234 1.1761944539529494147 0.0019349735710522952825 -3.4888025909881084097 -5.2653542060842015715 -0.60765166744459297998 0.1610649315747001431 5.254289375084613134 0.47146001874441367807 -1.5034339293416862926 -0.056719836109987487038 3.1915381226430383776 -0.041785017936213530998 -0.098325845746327078523;0.018662311536657337496 -0.24994551762965505626 -0.9111223610478118573 -0.16891146487082162042 -4.1647174841873288997 -0.071539103400625761453 -0.25411717135953609814 -0.34405461830205286144 0.17738863750823560816 -0.031444305570210634437 -0.76368972439890725479 -0.81153848148241070071 -0.63775192591115337226 0.43489208980953009132 -6.0711122533226884457 -1.6629559432978944233 5.1376805753956293898 0.5154300643390277159 0.12827802781363772944 -2.0077930590605728156 2.6905169550385616972 2.3904528671313598487 0.5351088191262706184 0.37727107436657469908 -1.8997883890122240214 1.7409295050315125586 -0.59727801355363363545 -0.18171865403574841147 0.015368813403420243657 -2.2332619431647828812 -4.9412285976877265981 1.5724562889012370093 0.15176422358469704443 2.5988322059469277647 -0.46355113485612314816 -1.727432377593891788 -0.23887074511249289932 5.4829067470890411329 -0.28323363043158900076 0.35237064068207585299;0.022817619119461902966 -0.29636574308083291074 0.071427181709205478377 -0.2172143992037049165 -5.4706578088239767865 -0.090225185562836415776 -0.34728636959756170599 -0.50506319418462986004 0.2885509405587384224 -0.051862226411167888784 -0.6569511998619715909 0.096219489773534283561 -0.81035088341675032275 1.468273075073572409 -4.3462258996973277547 -1.6005718331722209591 4.7039217082460433872 0.85776097472723888959 -0.71016996774344298693 -1.446255680319945558 2.9770447308012544241 2.2372391158419540069 0.77692851116933614453 0.48025035083852318785 -2.8139186829692190983 2.5909995279720408057 -1.2053652348737335931 -1.7587414061413595423 0.01890553024572812213 -0.052258824104768945851 -3.0994400338420229346 2.8244015614162383265 0.40771984816893813708 -0.20331034126160207887 0.13927151766286885448 -1.511514227799090726 -0.56460262583988296559 6.396469532794436752 -0.48268203451660512959 0.60250653714116764181;0.012350753174896608386 -0.35529171107164708721 -0.68677985714035671982 -0.1157142704651352022 -5.4000886492952053786 -0.04798817188754032903 -0.1905944666500545559 -0.28670488527883369878 0.17361302065459388588 -0.038780416239722753646 -0.37432116668544962446 0.86921801227165074177 -1.0141813239459858131 1.7310512958021373464 -1.9908197355716477084 -1.2515525862900405141 3.1726242550379311069 0.75097285643328992588 -1.4173139029138401845 -0.4950054713001512674 2.7418648764214084146 1.7157667296674181667 0.73609639344748034606 0.47700500418372010492 -2.6067239973015010612 2.4870424991741528764 -1.5024616784019746429 -2.8011462764248791224 0.0075467247493149168525 1.8660914175190503883 -0.90780760926788472975 2.9957675092943896189 0.011713492741882818027 -2.1764177319864490556 0.58171080869256786006 -1.0582469002707488581 0.56867963282839051331 5.4837663503392555242 -0.56302414320507077061 0.76696329260984830167;-0.0019920040880339138362 0.1297448994742191053 0.81520194209605156832 0.0038803942696443690166 -4.8605732459104471488 0.0028266110904669140488 -0.0017760379374509964456 -0.012777365838234326298 0.020098758343285672012 -0.022645628477155316238 -0.086431941547910992596 1.2822500086008914444 -1.2832180280953087159 1.4930042770169411614 -0.28041448135134289243 -0.98617939323132708385 2.3291824465575814429 0.47971498733647655044 -1.9459223772815030795 0.42841886857307859282 2.4072653478069692135 1.1384220762393411075 0.40184328167953037303 0.51013131729722616114 -2.1182678242178969441 2.2700228697932316457 -1.7451212849999457877 -3.3832238933770097944 -0.00016783377317041819595 3.024947887226792087 0.37394662497782132915 3.1625808074791290636 0.87610418320741023646 -3.4857740613742524971 1.0518676029163509522 -0.61939067055167984499 -0.15698531523723363579 4.5866620668627184898 -0.46573151782542748789 0.85071090519883751924;-0.00870051158261780401 0.12971141089138887859 0.37461926615579710376 0.070670779017586213278 -3.868013038250056379 0.029909759189681316832 0.10619896753583588089 0.14359022744853372489 -0.066891782474650510193 -0.016152232771734418432 0.18709119266566098805 1.3698616255477535919 -1.3881443098746526488 1.0110876212126247431 1.1167163513706284128 -0.68727972607372911362 2.0572503452464259155 0.20048634774498833022 -2.1811796698282006624 1.2446010906341227198 1.767336773600955091 0.38326382892020205428 -0.1277114771922573111 0.50436902191040011711 -1.4891990905063667849 2.1346836668187183506 -2.0206570106834016443 -3.419637946120197558 -0.0069814998361637002969 3.3815692651894551091 0.98815132308954589657 3.5784128086785793599 -0.80458375869704001904 -4.5112301309711266839 0.88991327515406037918 -0.22434659026824213535 -0.34227144416383992187 3.5515911929346968279 -0.4749139287209843685 0.58602086506009598565;-0.010049322632762210106 0.53239461429953205407 0.024618491921321490612 0.073586875374074212086 -3.6834983906711995516 0.032310290090636649418 0.10724420151767215248 0.13957454239752012382 -0.06081735810341972609 -0.020350495192767211611 0.41975680252842217932 1.2785203036537411414 -1.2569200554830322059 0.55172196332527279061 2.3314426200859363902 -0.32142851063278304879 2.1488598535703395953 0.012142847285534129342 -2.1329013582387523762 1.8689499257369801555 0.87541064279006342019 -0.46263963830362631047 -0.63659255537610814901 0.42776989438074325411 -0.85459713854242902453 2.0902203174945332975 -2.3788996670664008803 -3.3525569897226130678 -0.002769578206115078968 3.4563822082454742635 1.3161939308436936269 4.3413815893604956742 0.91420774689575567962 -5.7392741534893101374 -0.2540499355450687724 -0.049509933631998397086 0.57362179906771926241 2.9684318533584987954 -0.55204317570206340449 0.56908532348635221254;-0.0051974323241236256021 0.54021374273297795288 -0.19247805428632974722 0.022817044952038310901 -3.3144276124256260019 0.010864884547457353756 0.023185674291590529367 0.0099229337325349824261 0.015676560544736269087 -0.026152208338694318823 0.52069880791866252068 0.87388533231298115567 -0.69761672018637965742 0.10009057664774975716 3.1017545204664185299 0.15988701471464583648 2.0544126484110001307 -0.089902507487237229289 -1.4818812009171680177 1.9365791696554324197 -0.2779850462525398358 -1.1566452857603730653 -0.80024702132307590219 0.33771064690027946531 -0.64768640949551881114 2.0304464351393538557 -2.4004560360901172622 -3.0214335979656836706 0.0024014653653031282216 3.2577585286791781449 1.60733961000090253 4.7571226544004838743 -0.67877907759865707682 -6.5499403556764681511 -0.53998634148560997748 0.14875838679737207748 -0.66033537855369939251 2.6268211318248391173 -0.40976427874294757414 0.61975104176425388491;0.004213894513825851805 0.23932083076644544706 -1.0351548257284133303 -0.045195888520410586187 -2.6262831036268674545 -0.017550069086839210908 -0.083410972826751458853 -0.14301111878891567541 0.09792236992630351522 -0.023751911764494454404 0.42487786447204722862 0.22125823146208764558 0.10436267839050619721 -0.27665405327137193581 3.3536797891296510343 0.57900755104533652151 1.58692908634643981 -0.1167534866425010559 -0.38455045938082199619 1.3288676891367496857 -1.2344743964641107237 -1.344668305550449583 -0.49410795618155739506 0.25460903958233821465 -0.94593374309107292053 2.1178476026265693477 -2.2804144337698906142 -2.6166878571063465486 0.0073491752383990993983 2.9033070985061755209 1.9777464105765747426 4.6969594129198641852 0.23162795162658050829 -6.6982715034728839143 0.74801738616129065385 0.28998214414512457626 0.53650246464603779106 2.3115977568596615122 -0.40775311452524304334 0.31869263353089671842;0.0092837367422648059412 0.20503327744256555354 -0.36690428680946673978 -0.10066168879644168954 -3.3328543572546744933 -0.041185434637227923138 -0.17060380819819515041 -0.26667049844170198636 0.16095996403949741627 -0.016762998179844522395 0.1907276852760423913 -0.48740096844075747606 0.86326454026232191108 -0.52953543019887749921 3.2959407875535737809 0.79709189246071410206 0.933138859873914428 -0.08660933321088228054 0.80442946809910742534 0.29986866613032731044 -1.7459719159887374662 -1.0401320948225856178 0.090734204988424632665 0.1465750156656157599 -1.3503177959717707068 2.3237857879043151144 -2.3771272127310121292 -2.7000498705606506 0.012690389332928217817 2.876048564326842083 2.4788170021290669709 4.5270424216878106805 0.51843967078238128998 -6.8237085235584480358 -0.041362344662656286287 0.085459550763065286749 -0.09627856341837356946 2.6395558128061509251 -0.59868200229781565191 0.4118373814879978112;0.011600776908894116363 0.64318703115024522532 -1.1591760911671789014 -0.14123470117103714694 -4.5129588787356942348 -0.056944650895083173681 -0.23014065104697828401 -0.33937427602745934285 0.19020659636941122939 -0.0074184970439022399416 -0.15002312374796297756 -0.97051865431732908807 1.2321912981911282703 -0.44611414482048977748 2.3446554511307593494 0.60683600997585496195 0.29769392246870640673 0.049772646557305816328 1.6145173428963583984 -0.90983975459715915601 -1.3956680543400581396 -0.17774954971511155999 0.78783203901042808681 0.12106074605823100021 -1.9153893716536372072 2.3600725179673913701 -2.165521930322933386 -2.9586865011771901202 0.020034934116617407474 2.9618194661244339194 2.6163471849416057857 3.6763347147122447112 -0.56110577269939909684 -6.0495007908605380464 -0.43812315672212720497 -0.22072427899532823248 0.45007034852104604861 3.5714271110757143113 -0.46146768635873797182 0.9711988283788141052;0.015166409096487561484 -0.080924944262710990506 -0.8373314275025349751 -0.15423049373495664738 -4.3577963606530643048 -0.064691269368196302469 -0.24792214416485897077 -0.36362536558185964974 0.20260563518878721423 -0.0093992515259374975062 -0.4061221635610338665 -0.83811504788536450583 0.96625028401085810703 0.10316570797505114632 0.86049123422466000655 0.093321156591159137861 0.38951640354980032743 0.28791025654182583748 1.4253013766975297649 -1.5472735224862299575 -0.26426529592251046807 0.77229310572766440846 1.2370227365636448091 0.25066926011685508602 -2.6775206408941056857 2.4730712620715222805 -1.7253586758475703 -2.9539216664939806911 0.015043247309755990865 2.7811778390186394638 2.0570207933628306129 2.8237036068488148288 0.41196436945184400358 -4.5629517628332312285 -0.30794282424178714974 -0.32072595598245629001 -0.23835459597588218306 4.2533307687735790736 -0.2845139041000212532 0.87301165965765314958;0.018162237534311929249 -0.34751445104529571362 0.13149895656920812526 -0.16400128906031724574 -4.3983204575186771734 -0.066591798240309904577 -0.26763890228794046111 -0.39379053100344885152 0.22503966426248586674 -0.020697533678266388096 -0.45520206152083553253 -0.083090085218699732961 0.32166143626499166253 1.0143570361891502962 -0.55785702175852436291 -0.38694555787045609163 1.674061848047002421 0.58533122458924335962 0.3433711004402226763 -1.2918422789336150291 0.99712427382316970448 1.2994990109120658772 1.3414762232464678693 0.36580484788012840314 -3.1545865692742913744 2.7108367163563138469 -1.5613159727986034575 -2.7826776911490442856 0.012315231325771957421 2.266366321254750904 0.79913059464631497342 3.0432214201341247772 0.13083784253361768757 -3.4397163081838058041 0.60744218974830310742 -0.64144936626243576061 -0.14443909372024377191 4.780165698629503801 -0.59514280562201515856 0.36987245514629968346;0.0076952323773508612623 0.70340217254824799475 -0.72349067463877991813 -0.13448211789470360111 -5.9219656411386374373 -0.055425010584493880628 -0.23487006456740480709 -0.37767495128116423952 0.24171189465039669142 -0.040159067135321614705 -0.22943374605262545352 1.1537941077680287094 -0.35701080635234783145 2.031642359661142816 -2.1802981011010533763 -0.49912691432436595562 4.3734456026938000051 0.82257312365760415496 -1.2006145428516765694 -0.16815799506873752023 1.7419710659687244192 1.1312509029830404295 1.2393883280195454599 0.41295012402436614973 -3.2039940047851596105 2.6332728958848865553 -1.3915085151277275521 -2.4168031912261929151 0.019489535376220418206 1.377158560421103406 -1.3517575869718398973 4.42263710836895374 0.4798425853273564079 -2.8059104105753229774 0.082596519900153431148 -1.3913855795978726793 0.80622849021411358006 5.848634063691681817 -0.90431278274439619302 0.54855053026910816083;-0.0031953869480824560051 0.893522420615829982 0.45218224960495223552 -0.041317246835181752063 -4.7456617300887442568 -0.0094155560923928106887 -0.10346630388888980456 -0.19068431831054596937 0.13726233703299012268 -0.024094715516460439575 0.13433727389252814177 1.6382480169386215429 -0.34548039009469455607 1.865792700507213242 -3.2755937078077059788 0.090221118151773735394 5.9710538748767643114 0.58066670483939120118 -1.6282625419846565862 0.94638542286281390759 0.9121458729371980656 0.22135342237534427756 0.99316928892901035208 0.42179137216532475163 -2.7185525481550545379 1.5820869684225502549 -0.3671279847393592588 -0.9793006606024818872 0.0072317918452302187154 -0.13302541508989096375 -3.1358258234872549153 4.6093814041235692258 0.31710731232906774757 -1.391425047837290041 0.35651440461582900587 -1.4181047504046895291 -0.25609729831517191734 5.2812861245739997074 -0.30391247379202224188 0.7094550035230755558;-0.002813536639297404239 -0.087923568047867356468 0.87667760030695340845 0.047334997315921154004 -1.2297775430743480563 0.015749868431357363224 0.072843384860015555904 0.080204266465558310406 -0.022064219251275035 0.0085310103588457399104 0.23904114467842690894 1.1622909904187643804 0.30001584460453561976 1.0118939227510956869 -4.2786534103543010232 0.77829499783903843824 6.3143354216708642568 0.16689800382395786338 -0.74683258154365361747 0.90378620028915479523 -0.28710390724724560441 -0.19435598989124860947 1.2656492620332944199 0.48894736730104498834 -2.9452076563250213503 0.87586162234680231542 0.73863355633128591204 0.69885524690778921819 -0.0020645133567618418821 -1.7922539315610641619 -4.1236808366761907862 3.9063146805441748555 0.39076876508014118938 0.62012417820254661649 0.61001716022860907884 -0.9692775644561577586 0.38193398010105517049 3.8471512404870802371 0.2170423844550612158 -0.30519446023449725569;-0.022730455182836152572 0.35487288986905435317 0.4169835710908176285 0.1351202050900092988 2.1527549914034729284 0.06303746161167901596 0.18557512900731865102 0.2566142191676124007 -0.14845088334143524689 0.047672821682437825641 -0.023529062834506803831 0.1227061273575138084 0.91598884739461483573 0.10989227206847371199 -4.7894647684868827398 0.92771902595940824998 4.31784693541464204 -0.13186543293332117499 0.62592328724020429576 -0.24099896990911867656 -0.70343639525665069279 0.27079709266230589382 1.6082544438514185803 0.29477218279630779119 -2.356257702750761851 -0.00084683078478327462879 1.5361189226125846474 2.2756572422527270305 -0.018665621321311519354 -3.3648576256786508765 -4.0716850565593292188 1.3435060741679327734 0.19601046413169853633 3.6255172262985166931 0.17792377337524359349 -0.69927780883524470745 0.36156669934829344104 1.0967980864577466793 -0.00775924221986144802 -1.6566394943140589913;-0.0016358904090347475661 0.054430931162935888845 -0.46614254246093966838 0.085768763685329721391 2.1672861637885074693 0.032465825931418265671 0.16880981432755720606 0.28085405260498763624 -0.17831766824215417033 0.050088451498627437064 -0.27060597165089561589 -0.18668475418440388935 0.62100247000781427786 0.082075639370156938668 -3.8114656318322350792 0.30930053347142538733 0.64440040418776423081 -0.066903946766771638099 0.81394000585325698705 -1.0189515617828932559 0.10267162926394679534 0.88653848986759675732 1.2324656931815447525 -0.14800270409178434283 -0.28613093748352552703 -1.3041001175115449762 1.8292482251284067907 2.603269277826309569 -0.002719168656587970731 -3.3152260244448878979 -2.6983561856543674118 -2.0796653085913452408 0.67154949741970193511 5.4857440656484106611 -1.2143131741181663052 -0.72843575408061689291 1.154604938919379542 -1.3729945101378897565 -0.28135781675197030216 -1.1633711665771957477;-0.016340753883339127067 -0.63878778847708250765 0.6820856493118089281 0.10095705362546360251 1.2658710494957603476 0.038504820677565027021 0.14548528355479475871 0.19127801075989142587 -0.10257845441459136071 0.021439162665915844491 -0.2191003877697033364 0.45820922884636383632 -0.028691410535484518363 0.73952245945361139157 -2.1363704578346283114 -0.15181135523629640804 -2.2452339914385834874 0.16224053792986506406 -0.071335168241524388177 -0.64796666966077531846 0.86012828267583441022 0.84809508011017209483 0.6167461431300708119 -0.41468017513597560386 1.3368067821383051719 -2.4737267504267519413 2.2063254211455802789 2.1612055599307220533 -0.019797071308800515826 -2.0234821702666558885 -0.94953700835481957832 -4.3663158959675127946 0.39877093339949731821 5.5406875183170489763 0.25574816182096521411 -0.46626051258516598708 0.45413020742779292016 -2.6336200043219486489 0.16857588393867450893 0.30523269607826913896;-0.0019419521010845849744 -0.22248677526949872663 0.026026292727556070428 0.065682919692986910243 2.4481961653460286854 0.04409293571009192253 0.081761729614284892054 0.13297302858969081707 -0.081226743446745255928 0.026341680080223736637 0.023069836737392292875 1.5672476021507120159 -0.3453387927123034995 1.6615493545572175282 0.75410807899768261819 0.014643555030836587563 -5.7561128869677871123 0.37945619806392605344 -1.0442507772776574715 0.29054991517252348743 0.85219142104199818721 0.25191194977920244868 0.38041892494677148617 -0.45817376093228823208 1.815678146067816856 -3.5010100899809022401 3.0748690469836330585 1.3855381946330154186 -0.017505531786321148341 0.48337287822280017302 2.2502012919447449413 -6.3644096550129338752 0.035992038498446995987 4.2946631692154086934 0.22871325505524145449 0.71522666578925686576 0.26126644752783140246 -4.2029631313906214984 1.3170322856016798418 1.4538078515340386865;-0.0005149225802092526191 0.27296336461489451031 0.70381477691389504603 0.067795564391403301263 3.6095077953345291455 0.0055124247592751099423 0.15410360461641511853 0.20391293103838198375 -0.084855622061077939922 0.013644221254493899692 0.15203042451003856428 1.1903292014385966624 0.29020236065813581616 1.1051605920662481708 3.8362579197904329575 0.60916181509822231455 -6.0916572640082744527 0.16817412536491802011 -0.33235860689306495619 0.33597701023622589256 -0.31466085774914254181 -0.2363074729829227616 0.79290841105372000808 -0.021243012276602836474 -0.48648252754249887708 -1.2475930812702542561 1.5881765389707445113 -0.8711615406471402423 0.014311714629025713147 3.483724585851172062 5.35597769510053201 -3.5521640812546255717 0.82501395233291052733 -0.89779408158696061282 0.2019148090019827757 1.8700858646665992069 -0.10079835748800913819 -3.0567742319268158546 1.2631768251101074263 0.34874355008785251631;-0.036703298421950684982 -0.068630186758047842521 -0.16120762779359304462 0.091592364078850255216 2.3108234340871165458 0.059922348495762105258 0.033884302636663941877 -0.017162900879361186329 0.018725291992501735122 0.024628502236653120744 -0.14510665849892526169 0.32557340056899863878 0.85166167584342078456 0.73868137827856150679 4.1212992094820117828 0.65426653203410956028 -4.3772271086043108568 0.19725335587920345137 0.5850348198174389891 -0.58389186483183752596 -0.41065415552874862115 0.35624386359735332741 1.5298639197851515714 0.26101120001919547731 -2.63466857234279761 1.3586275831610086229 -0.3895045930314712801 -2.5496348414127085746 -0.038466733941721918677 4.4620742391509047309 5.8485860861012293199 -0.25312872694991406242 0.41252441519135002457 -3.9832747974254143486 -0.0039853369205207350712 1.5658322267828375107 0.39452199493653739015 -0.76957711800154504633 -0.038299894771365805557 -1.1201247088488921477;0.048342864675684653342 0.78642116230982239689 0.52825434952452854365 -0.18636710443421394823 -1.6977976388368534177 -0.070638753414663357777 -0.22723702581951762958 -0.24491061810525394105 0.11246268381545841686 0.017475904420159862201 -0.34280474514925707297 0.42973387969967796751 0.68221769278650568058 1.3983255930205411577 1.827116329582676002 0.21747362673533129906 -0.57939448711428098715 0.5799361803747717925 0.25509159663235547733 -0.93775084455087520663 0.49243205453806759841 0.99034919854529945837 1.8283485331817326269 0.2331685968697709832 -3.328809604062438865 2.8037567785473602733 -1.689960910794596316 -2.8225129620205184899 0.040727057207746109047 3.1562433926593231881 3.1830554792747265402 2.7348228589477194816 0.73259214942752071131 -4.3125070197261958782 -0.41139687280849207562 -0.072475072357539263579 0.65505418855862895811 1.9769121336616271023 -1.6570664830638301979 -1.5264480940032598699;0.0077443789035780896332 -0.56394147661720861464 -0.20272751563407154229 -0.16569124661686232547 -5.7274953609883949568 -0.11701819698882776066 -0.2431452325043259588 -0.48103271831235216993 0.36663429741277658858 -0.078140615115030356841 -0.11878821553195559324 1.1789768767203843147 0.3395067446587333726 2.1532369707088938604 -1.9075911761161250535 0.10407552382507805067 3.826530892917438198 0.89176377286134189681 -0.7117466196655107824 -0.13570825571114641939 0.67887805129279954475 0.45059509814173814846 1.247077395189334803 -0.16262244992600335958 -1.7447645801609408256 1.7085751332150516113 -1.0979631526860185176 -0.64238728918771093035 0.035501204792661569809 -0.59656417723323873492 -1.8742425641266158287 3.9566035021388579196 -0.24697573147503493196 -1.509804720517923915 0.072388667813995347111 -2.0427647081934510176 -0.77031280951620828557 3.4139489391773389926 -2.1365875165018750614 -0.21067334765935064045;-0.027692274137955670554 -0.72686962854783798704 0.041302745280545623274 -0.19711679499839260266 -5.8415051253801681952 -0.010601457212092579505 -0.58959461400850066148 -0.99219028541885079253 0.58382734330311703008 -0.05438205984462404774 -0.035703697043602718175 0.91013043153490691406 0.7012739988495140242 1.9868378038899010551 -3.7505439182627200445 0.45033541431170931446 3.7310541505421941366 0.97248446448530623254 -0.32174628152364059819 0.13742589305896346641 -0.39835807549325785715 -0.51187228981212617995 0.44133791667800892355 -0.66019302462828066691 0.83807932107357685503 -1.1669544688059347859 1.0703308878104575985 2.2768287035037744204 -0.057496877615113684001 -3.6455760147962368301 -4.3708339882834703616 1.1992325218615700333 0.77238650231812788771 2.4580700436596303327 -0.72178559282923338003 -2.4232351953704163172 -0.46570235090478628859 2.0312167746503475563 -0.70198539421054018117 1.9323905384882065217;0.14132673427097960928 -0.5213007877184993033 0.41899471190107601126 -0.56896067331067212702 -2.7249200508285742472 -0.24702777532033065588 -0.69607218439953078004 -0.83050795992591841532 0.43229657523538528308 -0.034500405853225897534 -0.10610451973687495819 0.1168129613375793463 0.81752945720798975149 1.1829584453415702416 -2.2681285935875350468 0.21209488019958330773 -0.66116288491349139989 0.77529183458911909987 0.62414370892508164168 -0.55835414909541014605 -0.84206541629229370027 -0.65259540537755833522 -0.2337707789228509192 -0.78185114187654991547 2.2210172573493527359 -2.9471300521247876247 2.6097911262449424719 2.9575092064343544429 0.10393985182387015243 -3.0499944621851198256 -2.2851017245996496641 -3.2150687533114026273 -0.21817161110259325474 4.0047214070473158287 -0.67109108946834972187 -0.94261814964925483284 -0.74400140209058263085 -0.27082714862184659177 1.3658599392409740414 3.2447125273935664147;0.0038692707681407660127 -0.3529695903890248676 -1.0275635385955022016 -0.31760381132521114944 0.84300189056889451855 -0.26151433810482493936 -0.40898934483568921694 -0.86028738567491913614 0.67803269064054805249 -0.19009502934446689815 -0.020418479009813986225 -0.073869493661647425697 0.30418163208002602094 0.89561193251751780586 1.0767105936747429773 -0.47006440728132919959 -4.6498288725589818071 0.77321240469049967725 0.52229759572089740072 -0.67036925068326136401 -0.55389810341122314163 -0.85123279872294821402 -1.222780278747081617 -0.47636547519408661833 2.0249023593595381065 -2.8891269294845010052 3.0733384338675961978 1.7093482020017454204 0.094171689371281314118 -0.0058609314285973587721 1.4363973730878012436 -5.6584690306125571269 -0.66840445454078989407 1.9406174981404493707 -0.46692393942201843027 1.4380217753926916036 0.3098383549203100884 -1.0923468173153740857 3.5694706216587723802 3.9833724070349076918;-0.1019385797417083489 -0.22381322915484863634 -0.73781367683877252528 0.010338562098906586839 2.9261305527653878045 0.11857282253473688804 -0.4425582171780606533 -0.84733394594667188482 0.48190572789587216018 -0.05310832215066100398 0.016292743063208853238 -0.28799263933480140354 -0.12733589754968996366 0.10979244522677533702 2.0589203712843451299 -0.28082864030886023343 -1.0836974508099970205 0.35086999320099854227 -0.12615253773271756232 0.30395763030794314963 -0.34156232589266516397 -0.7436428705504835035 -0.99516209348852835426 0.42595520905050560101 -0.98948535395159820105 0.65815927463648449258 0.39696881399475314467 -0.74560061336335725635 -0.12802623371156532373 1.9619025674498502543 1.8657939007388908426 -0.31916466123085451834 0.49623181067160959667 -2.5226619281052693466 -0.47886369811209922309 2.0269633862505047617 -0.6050310334981963134 0.79286667457467374653 2.2433558874764649715 0.62313603777466564093;0.15965999402956193576 -0.17885229959292692214 -0.8291992111853534464 -0.38297040580127672538 5.1331774676151216141 -0.12431218671112070906 -0.34111323910619595345 -0.10457678241686796383 -0.09803849883611374938 0.062222651133699187487 0.058511540760793928628 -0.71771711724234688035 -0.19165223986358648212 -0.9209006261250997083 0.22130828841525659878 -0.15676629309845219185 2.5221566894381894919 -0.21027861997807748007 0.15269415605944763881 0.30684268933781277955 -0.36500487567855083304 -0.35573901581608319278 -0.54072926837551638091 0.90036020672536809517 -2.7142968285810415985 2.3764842214402812637 -0.65461543778561481766 -0.60933428761115626671 0.080425494239536196583 0.68193052656726027561 -0.24186963369788877509 2.5638541984791207717 0.8341005911933465633 -2.3556648632284633571 -0.42820516979500816701 1.7947764003235715524 0.7900793714339080509 1.4976345267169257625 1.0842244589864677984 -2.2478613591230609536;0.075645629524709781522 0.18101023397020202244 0.39655197401339525864 0.11406135943186283821 11.071874325321946486 -0.22829776402677787184 0.86626891331700761612 1.2855559692560543095 -0.57617773127662896826 -0.056874187322616058526 0.21165512725887633549 -1.0094336929432405903 -0.65684553032091497204 -2.3054712360154998585 -2.2956003013715147176 -0.3990443509607569661 4.3345370606138127201 -1.092692120693616431 0.13578524721152201993 0.18284045074101348827 0.26535966988582332382 0.33184845672393414873 -0.38309497842225403996 1.2052831032681456946 -3.3387027575838055249 2.8594118954321650072 -0.53035523963610131659 1.3629737856739574386 0.20774324909417976603 -2.1978345096698341798 -2.7695443708673974648 2.3536880346218578275 0.2299355351807109149 1.5804294073464553172 -0.40330786926428291439 1.8947946536450717137 1.0338929515377586199 -0.99959308344449049333 -0.21146869309014493243 -6.4235722467664677637;-0.38870030237537817053 -0.37312740908448466248 0.94407644409501456639 1.0817476262275935728 11.324933349045185338 0.52437277117347802502 0.88247817601912548202 0.5884604424945597545 -0.1683056216833320462 -0.027589033131639743163 0.023811339921996216296 -0.4187305956886931968 -0.54171530449575922006 -1.3261973942817559813 -0.18257520147845629488 -0.039177179365474795736 0.25521087631343036817 -0.77318331382085425663 -0.45540373533449474142 0.48161875910433127324 0.62660603937390557672 0.4582402466663862417 -0.080436940713870128117 0.53327172043281811931 -1.1833929692034339531 1.2551949121248811014 -0.24909259651331272511 1.9008082705177509197 -0.3124838552548334647 -2.0031214946812769817 -0.57365169766398493856 -0.3517688486185945318 -0.62479292578399758806 2.9996303572488391964 0.36605399810773675551 1.5100920416760363896 -0.36808707199466444981 -5.3002909869328824755 -1.7998171001857365958 -7.0024437334871398875;3.445759941935432058e-05 -0.72335847634710426224 0.69911632935523571053 0.081624045059225061594 8.0138765855643292468 0.45213481494073515243 -0.49015026630576713496 -0.24607675332589074024 -0.30124528754736640268 0.29900099706841687386 -0.36684713499719229235 -0.028299166727787858355 0.14321213208696928487 0.1697022608150782208 3.6984289967144738931 0.52120346895959224209 -3.4334889432269961596 -0.056779121813473484859 -0.31251350286333118289 0.21452576198445380551 0.46201007314162939599 0.63802870337647998866 0.8486867560712331171 -0.022762637524915141363 -0.63053947718906766529 1.6908840808916940635 -1.7872482443969042176 0.030142324346264390278 -0.27314216594410062333 0.57471622387701559731 3.6194948026689539589 -0.032866969789109468092 0.52264750123928471748 -0.2535373766158255382 0.52877034668495903613 0.83433283164123661635 0.80837948347918409109 -6.8596390801315791919 -4.1608636684164865827 -7.2533786657971299761;0.49031561827575848023 0.55713456700352514961 -0.59490473132609222873 -0.99105693208745326839 -0.24509836267201426385 -0.61012640732458633952 -0.23088700323558308813 0.59736760468375449395 -0.51464654418898059252 0.10122687072819326615 -0.057115291531125454705 0.6284372056899785175 0.29193964931442600852 0.83356326449630535613 2.423315100461840732 0.22886258185871230508 -0.98745024526898395045 0.17191682023612825381 -0.078531662814764716107 -0.33024679022632119629 0.33821202650316251059 0.5283987607797128172 1.0433541781184718644 -0.38205052825543955874 -0.44533758447438792638 1.9507511282064291525 -2.4047143166422340066 -0.86242673454075369222 0.4402537533652278734 0.51296171157144332398 2.0954853901005980887 2.2584727123802754711 -0.20398109190798849322 -2.1342596264610813606 0.32028738036897519414 -0.96774008732350558226 1.1026713704755592982 -2.5027112640794060283 -4.2783062347304534612 -3.9618362331566485679;-0.085206845635626915492 0.70431581675105237039 -0.091322948822078586772 0.21575313207679103211 -4.0653765086028359477 -0.39243532540219844273 0.91274072455708565865 0.62962817844944107826 0.20711781013976920951 -0.3235943787275392669 0.27671384854213942894 0.76365931511818752053 0.32748351826691568522 0.72310247561743679068 0.29771961557976422963 0.099110888878464836749 1.5817461133692662933 0.15822048952042871983 -0.24482935586169460307 -0.13369406560516086668 0.051469674241952312332 -0.10456760125048281118 0.30711098709172068855 -0.92894235097419031177 1.4370342538445968206 1.0779069828634952888 -2.2123996059444346329 0.97109041704864795808 0.25240867043009890258 -2.5380703295261719532 -1.3454599887467868502 2.9070190156986472907 -0.18942787447122097499 -0.42389826604954017331 0.30613494579275074559 -2.572540174509422517 1.0340675011896856006 -1.7472394596975242553 -4.8473813236679657024 -2.6418420329150635872;-0.55699335472983968476 -0.41500086722134266193 0.28271680319974407114 1.0045402259895745978 -4.3236441253229545012 0.63782405940862740845 0.032497662288372031192 -1.0799715680328445533 0.84996973959746346949 -0.14857457985434407988 -0.13972861260461719168 -0.3443151823500494868 0.37477143087345737849 0.30956217862314483469 0.63249146511985643304 0.11619613663637205769 0.20964431149812640109 0.39382006089872034771 -0.022542015475311875244 0.061032754867357819073 -0.26735145654928543779 -0.49672636069913050916 -0.7109285072817423945 -1.0741491812820871399 3.4149542222170650163 -0.47629771945086823992 -1.5512055808970410808 1.4124148915913148361 -0.48818849979132644679 -2.6979334618469845708 -1.3633360732305299656 0.81524575201753590736 0.40309038948806519276 0.53565108785588866347 0.48989302890999458784 -2.2235861891865340567 0.37100311197204527414 -2.3473784385950167142 -3.388853125721801085 -0.61867994898957934247;0.011887684571391018626 -0.90559209897453951665 0.070170274340642796451 -0.29725547097195281765 -7.5862542503376433345 0.47389388734134002545 -1.4565653025658453767 -1.576970217947871955 0.32002533629970530971 0.28269542517094126133 -0.45993848802639791806 -0.83422539323922728638 0.069479688372418413334 0.17223347921389728366 2.0336705801200061217 -0.029447226700040646935 -0.77081162404344394368 0.50802673467183923073 -0.059889944880413631401 0.21011443018153322382 -0.060835771472828779893 -0.37653761963053533623 -1.140882667488835045 -1.1745148533648746003 4.7487513817784066106 -0.65544733307836400282 -2.7002681736362554865 -0.20283750904067507359 -0.36120397379559476825 -1.1113678458396398785 -0.17460851109487951494 0.97168731454306700446 0.67116611912451229482 -1.1574519628654611481 0.32555986683345922161 -2.6143385208821339205 0.36196142077249759961 -1.8150247294651955521 -3.5362981448807850882 0.95872402881292628773;0.9419459864402933702 0.038111888621087754159 0.008423744045241135861 -1.9041885519472152577 -11.206801866105594812 -0.93905287347497479189 -0.80059071608883847215 0.88670515061038468474 -1.0956225829586727638 0.31314144365248464119 0.057834664423778311959 -0.131659705064918503 -0.44711901717185925653 -0.60088683754181815289 1.3464637572049269476 -0.1706956170577048626 0.41369169745445005804 -0.3356647015046543836 -0.10484828202626780835 0.24715042633513703563 0.14578008859230573435 -0.016471034400117399998 -0.65788621229424371073 -1.0904640823696405416 4.6302219942619222692 -0.54814092917178103281 -3.3805167224731911269 -1.5061755827916907258 0.68806746810890617727 -0.28726971568676457069 -0.52581338283024281477 2.267442195694366891 -0.5333932125918401379 -1.9626594061772781874 -0.28719420127298450618 -3.5146905830145445115 -0.95276485294248736135 0.070083939789222476913 -3.795520285828562379 2.169322458573653023;0.36652364298888356897 -0.11256170886789521046 0.27789036883915169129 -0.37546804522020532646 -9.5790145353805726813 -0.96732396807979814657 1.5351134864871565089 2.3807113389577447826 -0.87193700605856960806 -0.22953074381320798247 0.59995828841794818231 0.63875995869043644682 -0.38303936389003756524 -0.93353994960791664148 0.1043565652659776688 -0.14704572356063580485 0.025854149411595205715 -0.91636029370134963745 0.048411659706012452609 -0.10489058030158718293 0.1232633141665018528 0.16846376909763763341 0.0063071058127020726558 -1.0248140904069353851 3.7395550427009580652 -1.1815076170397835753 -1.8895967441294856393 -0.60476431575763656134 0.71638168160976600785 -0.81740648940081939156 -0.82055738144001399981 0.89062969905738442744 0.39947502221185565707 -0.084160635878618494932 0.96473000944944709012 -3.2201405715047086709 0.049056916014441641349 -0.088157256352186644244 -2.9979741992644375337 2.1850614351043371464;-0.83618470534234323743 0.34953908409062556251 -0.72348911022256845449 1.9599317456119635938 -9.3681915696536215421 0.48373012119613506554 1.937564203507301297 0.62656751085195094841 0.59411317719457756859 -0.48002408780858313309 0.32193031022333612468 0.40451464275865722797 0.11079837020031453598 -0.24005318735066238922 0.9473460013394939816 0.089957607779727263853 -1.1583856722739576117 -0.3545405310087020867 -0.074566996397590359913 -0.091470745322809354771 0.035478950145774151848 -0.044354251231041683101 -0.052696217099099745829 -1.2380425601506037658 3.9863517523922147312 -1.4042302582024996926 -1.5594481801751032268 -0.2595399341011298544 -0.33267798449880259248 -0.75631729743588194115 -0.05342304896557115157 0.18208089129348239976 -0.23009896340175298168 -0.25416289853462814552 -0.50518692834052614238 -3.034483427379353504 -0.20972212998940245599 -0.81197652233800254873 -3.009100220782579882 2.2875243466386785407;-1.2334390279197751106 -0.57935280748726480926 -0.28953972959670243315 2.2610454360620031444 -10.700190473028612814 1.8443453007380050668 -0.48563651865531731744 -2.7366930019147361897 1.6385912316105384345 -0.045432588515475408331 -0.58807703732517813133 -0.65290771934492508599 0.60790884787667587297 0.8867829274842915499 1.4629204556913535384 0.3549075357140125675 -0.28342838042792972697 0.8608083430028442562 -0.18276446178727123737 0.15200704192185382491 -0.063703969265918730658 -0.28350310039510501214 -0.50239248216240706135 -1.3689256561634914888 4.4762049665941523457 -0.80112272078080437598 -2.530626901092645209 -0.426687429586912359 -1.3381337847665248919 -1.0370175305951483402 -0.41928582203946990203 1.524986817551286844 -0.051658703553583443235 -1.4968138099319594492 0.45411903970062672542 -3.4033346501963923636 -0.82200443977619519487 -0.46426799604365215357 -3.717564023283791208 2.1368438853300308899;0.10081508458703736242 0.30373444768387475312 -0.93997220960942451384 -0.73629579519838428414 -8.6214531397333455942 0.89132233349033840319 -2.9511347586350460404 -3.004513104818724134 0.49064226660284515624 0.62228899043926722001 -0.96255332948287108952 -0.9854820364163205948 0.37407692646145163096 1.1747597250305454875 0.84244089295387158955 0.24325967269790443881 0.59943669082389261504 1.1862331128362124666 -0.21655860588915931686 0.27498200000885136829 0.092832147701677136808 -0.16743472260643629812 -0.72693805650354581527 -1.1600115698552224686 4.328669031875270079 -0.51074765027710966603 -2.7088014319515210104 -0.061965269360122539333 -0.64987723875924696681 -1.7070495213494711884 -1.257095003511105924 1.7713232494118995586 -0.48539049628622721322 -0.70726194049336243985 -0.59877892405921762098 -3.1745402053852882496 0.016135720821487811033 -0.99077024109455480438 -3.8565970483143932057 0.92377142370845999331;1.5726791765977607973 0.79901528541355304469 0.89243161904443113475 -3.4680568265556916963 -6.0457204412316576381 -1.3225582062350720314 -2.4447460735468475868 0.13138063158007551312 -1.3794865332768708743 0.66601056957495385902 -0.29332085349328956836 -0.031153907200103185537 -0.14695063348692541383 0.53216235910640052875 1.4401824740675048808 -0.034966377508447180067 -0.35756364053583206131 0.34500611258241153934 -0.10096137960825850299 0.095483318316478271726 0.14809499521973479297 0.012576018741139397689 -0.39967061021799221709 -1.0192064587254301422 3.7312878024717557324 -0.25801618964970979286 -2.6729047388292066501 -0.12895584855815533931 0.94607787547990784827 -1.2687826635951557908 -0.27839306181663669992 1.3468058945431931051 0.75292818982521958482 -0.48585885118778665559 -0.43669426093820751245 -2.6573042869578995528 -0.0066337456657127313875 -2.3466766286904023886 -4.2155891069089683754 -0.55647093744049003217;1.9007282191156924522 -0.68265316530085839997 -0.18641113358761030039 -3.5402182239953141618 -3.7774782434955618271 -3.0333020113591588895 0.87148013040618521607 4.1659707668220322674 -2.29948750889419129 -0.060322893933922858145 0.89419231595648995814 1.1190384606368326548 -0.4945748311848215395 -0.82879918081410508535 1.9807519460683047363 -0.3370387827069964426 -0.37011257178563217174 -1.0315521562852920656 0.049334093044145280182 -0.21928868624516906216 0.074927527308658287142 0.048412711352118831254 0.022970857939946680293 -0.94147404366648168583 2.5236141664524582851 0.81809005152852731779 -3.0059545240334308858 0.016519238914571184734 2.1498221806704935766 -1.3099525319851350602 0.32326980099794516699 2.1309959958092208332 0.51512146018357973798 -0.98941038655770885413 -0.79991130614014904765 -2.369875122069159179 -0.12347671099210402734 -3.2453159383613257027 -5.2563985712736256417 -2.7899346145408103759;0.1019196876076769176 -0.71469478406508224477 -0.80501242792833160866 0.53040580520572078171 1.3359645629461316396 -1.7368486483947123133 4.2767553728824152515 4.6865004552255999926 -0.86156711894047843803 -0.95188226443205070648 1.4707831507281818872 1.0760334538162812379 -0.54721351085792802049 -2.1156956267632467394 1.5500733259246239903 -0.44062610053326356496 0.42827490871649931403 -1.8021548252498305054 0.080624612368431297638 -0.16818332845242461859 -0.11296090797901554847 -0.20900309481380796583 -0.20683048859996652769 -0.58915622867606953772 1.1200955649117891877 1.6221989318930871704 -2.4416737068360343521 1.1307585750228408283 1.2348232988618546013 -2.2280919719558673897 -0.25137171104554639767 2.2322811038472272216 0.30849198682162909391 -0.30409291577444080845 -0.58672757358973681718 -1.2173427081107452974 0.22972945128841495976 -4.0380542452384435848 -4.8259819247581150492 -5.0373070023033550413;-1.9386610371090036153 -0.94836816535514134596 -0.046896851814833329097 4.6304154831874413389 6.5072830440965736543 1.1119571399885337382 4.7164993356671445213 1.7684890699159081517 1.2172772494336581151 -1.126483119592812665 0.8590068187242583253 -0.054165538843303537297 -0.20766786116203564405 -2.22736382977303915 1.720071666278403022 -0.10841694041193022935 0.32395754951863919846 -1.4331668756676863019 -0.098851316020654084182 0.14136908006984219566 0.023255681267406458357 -0.10344155722287086407 -0.27491928633982931629 -0.066547685798820477299 -0.37412369181278554153 2.3062048600978712898 -2.0033725874520409427 1.2795315769915325266 -0.76963423616023962648 -1.8437887682848479454 0.22999357125492767007 1.9006582421275948214 0.18610690115278125112 -0.14762023677035643332 -0.1944583719312912018 0.2841998218632777462 -0.73774086262592075691 -4.6923472915635242586 -3.8928657345147237301 -6.779197549363999542;-2.77573323789158799 -1.3422509331640704033 0.015568424458375010669 5.7782355545210268843 10.296812064877274295 3.424730880447620418 1.7824799465383800445 -2.7454867568101133379 2.6527545637401050982 -0.50923618970746253876 -0.48327184042545501264 -1.0351019792626718896 0.48821825084577713527 -0.32397319293795157069 1.1317523630083070607 0.4798066315921546976 0.46564467779812457326 0.15065747518729818988 -0.37746061629169314067 0.35316406799560323693 0.31142571614375447187 0.25751806760792350648 0.28463220880509954025 0.52811142880594819093 -2.6195853078445709983 2.7657453967371359305 -0.9898058091740891129 1.0575187320515972988 -2.4176922530667548372 -0.94789105103027870847 0.68103837153930957271 1.5234856903725644273 0.23712840577254079566 0.044071508304891836294 0.28227706642028460582 1.6295418074330256797 0.25771662403586453882 -3.9629893337956878518 -2.3091220776428809103 -7.4088641962769949956;-1.9607204925331014334 -0.59344467359870400891 0.15952600481387091413 3.356748439132391848 12.227058476489350625 3.7713664950278360521 -2.6514870626411579657 -6.1826421059038976225 2.720293649746541309 0.44791356756034839126 -1.6666925429717165397 -1.5240358705528678218 1.0819282677181982777 2.1417882779123047499 0.25494435176339291793 0.8178529969914254405 0.34228591105465810962 1.960098946428470601 -0.43505114106907732952 0.33471896919128718562 0.32144955717400236495 0.30849454869530074097 0.56786361136789531567 0.87830793539665907854 -4.0085811847451653378 2.3926455488562208274 0.58225562441054257157 1.2716557634337637417 -2.6942730086221584607 -0.46961665210283543015 0.71970906591542227471 0.3937501613979484949 0.19854134087621699845 0.68070095476960501557 -0.39097403749727810407 2.6682921983515828224 0.24588150350397902644 -2.7817322926051675225 -0.14002142189469474198 -6.4229151816648091256;-0.061926852372297606919 -0.45345262938125757701 0.26132520671671011225 -0.80409319042726146165 8.9709434081763088642 1.8676607027713520992 -5.0766181053987962102 -5.5908567426779143261 1.1322359405929085518 1.0573317940794233483 -1.7666125293941026264 -1.3392114875984917344 0.89049370486719281459 2.7248225069237230755 -0.27855426125763477208 0.60276682197677255992 0.25764768041970204093 2.3047897328109554493 -0.27331017321975548118 0.24339074435941479568 0.17532153854653031999 0.16236642330580333682 0.32259701553157715814 0.87325339803299351082 -3.4074376042899863215 1.3177290313294025559 1.3006421926957283386 0.67515659598839372624 -1.3667441146324428303 0.31021845022205501996 0.51303145583593590118 -0.38890272798447056424 -0.43075101157749962066 0.47222250566850410003 -0.41358598177973066035 2.5540636312330700086 0.23444761417108025969 -0.62921561370619627507 1.7131468132131559834 -3.0784372242389257401;1.5907243759365465863 -0.41122800771668138742 0.76470075375906132464 -4.0892112311741266595 4.1335708997291513711 -0.31664697382444439988 -5.5285907543697838662 -3.2327230640243107551 -0.67143517788402629076 1.2778209687724875199 -1.2747992374166321472 -0.59237464182351429187 0.37247352246183318414 2.4134807474064436938 -0.9331197689810376561 0.22972423276445425033 0.17637550700013859828 1.8232707105804675241 -0.042271985281079366148 0.05036696358314564359 0.07095843565852022472 0.1309228092076009653 0.23020520071201866497 0.7053094416004178635 -2.2581208401260028928 0.08198873520633728762 1.6351599702140524606 -0.042538226145862050032 0.18576485149735663671 0.92047254913998366455 0.18442560971071697562 -0.98841912684338384398 -0.074607524630581595337 0.46140748931675412692 0.35135138129381532357 1.7625568170088588005 0.063490571692560143768 1.3510850807158345521 2.7712242091815117995 0.33365763193767794537;2.7170182505860225319 0.038812013380824121611 0.78951170804841697137 -6.0744641777552361717 -1.8485081917620520553 -2.3881292331439691878 -4.2981975042424389599 -0.0099969028353182054492 -2.1556470079741436585 1.0780713519369438114 -0.40926445470951161587 0.42537861851212421804 -0.13817731979863570602 1.6242042613805189877 -1.0232781303301674569 -0.16937780754357983914 -0.25213082649154533454 0.91756664174421542768 0.19135580492257214802 -0.20738678657205958378 -0.089629943650402152389 0.010139093257166350778 0.12118023846679590316 0.22374373375895315053 -0.37504888129402935704 -1.1229044442209750176 1.4429076473607855835 -0.57218057653867382406 1.6642670950286397868 1.1243848336670845267 0.0088222125282938039514 -1.3226375660728182382 0.34224565064541473403 0.2668816273769097358 0.48018308182219748836 0.38226531861045937033 -0.3294073899631505542 2.4950111352619881444 2.6417029014324659997 3.3203402995337332193;3.1401245986921648701 0.84107952177647415937 -0.56539794754574501656 -6.494499620691878583 -6.6139604860366345562 -3.8582006266536654771 -1.941158565523484425 3.2260541360502292818 -3.0756936830066710087 0.58807152605937962342 0.57484943374294250606 1.1881519056553375702 -0.64789103855286445111 0.22906339412064358196 -0.63775684616770567104 -0.56688367452308330297 -0.23621891707220032952 -0.27194189794149487005 0.36829059649118373043 -0.3568597251560248762 -0.25097068410775147385 -0.18769244109781055285 -0.20564008260587526844 -0.32958608053146476458 1.6749990091179156604 -1.609772401221263971 0.41873732335634916701 -0.75832384717286394071 2.7251084083218870546 0.62554746080156087285 -0.38119197780726260527 -0.76314215980626309843 -0.58481153279457875893 -0.1610090754265934565 -0.52636662146531965067 -1.1184476940577450232 -0.40259396602166602763 2.4537650324939739299 1.2074896837950279682 4.4726539901799950982;2.8499672952680406013 -0.22959418436933110019 0.21053617228171842002 -5.3963075879105169008 -6.9654724973078456784 -4.4193235661798082603 0.89466066604229543824 5.7968331547247133884 -3.3530521620078039824 -0.01760284886631803547 1.4113875595415970032 1.6541360659454868998 -1.0428241095453205656 -1.3145951848136190332 0.088925675184738192658 -0.80926686015111282124 -0.19949831361945669084 -1.4711160772890610193 0.41257975735263524575 -0.38964884316469045045 -0.2639840246957810832 -0.23143952353415581102 -0.35833904331598831483 -0.6198274484829361386 2.5849634500307447915 -1.1646033191002218565 -0.76041011755057663635 -0.54440862765759245878 3.1349286910137923456 -0.11591942968996488128 -0.43414061647617402384 0.08815962656276365994 0.086724607638151957056 -0.34881687546485706797 0.98249235921287281226 -1.8214488962342192391 0.56182969783843239586 0.85675804985637404876 -0.82428088868590487781 2.85387729285563152;2.0242704455061240054 0.79644633665301989289 -0.052459699749537541669 -3.3742969926555854698 -2.5668849974244385415 -4.0604888515878085897 3.2220836000798449561 6.9044295049699657696 -2.9077547756166937098 -0.56097260423537409491 1.8730034468786858071 1.8254780184377015217 -1.1265216070634063161 -2.2622616023952728526 0.66286567186780531724 -0.84424939173961799366 -0.069597569151580843116 -2.1753017961157650184 0.37606413961470969154 -0.38947328775333306394 -0.22918174451337045006 -0.19027066998050062852 -0.22178306047153203973 -0.4462964186047138071 1.4983860847631400581 0.035099641073416371073 -1.1935158021303315934 0.010572571410569336567 2.9066549975708846354 -0.63217840222548515872 -0.11400526737684381351 0.7679117889361877225 -0.67423314906742293218 -0.33350865286551617528 0.43170299115911009435 -1.1766590802207845812 0.69065578422111073564 -1.0242097610570521926 -1.9925123685220371694 -0.46027051092166021418;1.0198878607925665474 0.36632306041264933727 0.14150545950386703153 -1.2209953679933667203 2.5958962397191438498 -2.9891505573955843289 4.2802927595490558588 6.3291740765754864739 -1.9955929951870750028 -0.84934789203664262658 1.8672547634178182641 1.5864351278504613685 -1.0176256250154143146 -2.5565820990404266588 0.56229588883348546879 -0.75543743906520033349 0.15427553097931692716 -2.272819074282641072 0.32121492222449066212 -0.31839460169493938313 -0.20731483763243199747 -0.15380652942824188378 -0.097085354346724259123 0.020774906768794385026 -0.31336516595995861367 0.85581662986710238528 -0.61685862812998704108 0.46229231804466469624 2.1501898302340043401 -0.62184802002453731795 0.097931202664743213782 0.69381351213447317594 -0.37197625684217366926 -0.043466854673007648824 0.20599387411634575984 0.18672913199049678834 0.61462270120094075754 -1.6363378220135218477 -1.3107132854641756481 -2.5024570453947556636;0.31228736920138078226 0.28346259880150881383 -0.19250076205137620078 0.27499488861172372012 4.1291267967987028698 -2.1654398375935719478 4.8705370351931360773 5.7748265633443338629 -1.3452718913611909635 -1.0089857484152577882 1.8018389770356399993 1.3864450732473732053 -0.92737450744895577603 -2.695734045594316175 0.097461436822522118373 -0.6661524985350827377 0.14741331988095382477 -2.2923078959659690668 0.29931944364805979086 -0.27254765096564748106 -0.18683028332081913492 -0.092019955196480263115 0.028288847430187325643 0.34212570188450536213 -1.3134498463010213509 0.77066415967359125361 0.22003361945562163737 0.3508453106398463639 1.5729211554914335203 -0.066260433551826494747 0.23343961131875906601 0.12044529359615305242 0.27459686252658943584 0.15662941977817293471 -0.14033949444707513599 0.97356128428995580837 0.064407435597765960722 -0.81925398056861364893 0.13063497286641337358 -2.0043352936501688255;-0.17872769311240327417 0.2774900770043241538 0.65782233874941042906 1.2959283865259130231 1.6514206432651996614 -1.5885294084337209242 5.2287526733882474517 5.3216828569325365095 -0.86449396040427073373 -1.1171654039055485264 1.7490763222963616741 1.2822556238262872164 -0.84155207858206970695 -2.6980379547272637097 -0.36043834424072035416 -0.60095385968535919297 0.020184932084180279982 -2.2539024478635116822 0.30562597087361104142 -0.26330695651371599508 -0.20975062052168416682 -0.10029565863620465427 0.029346446002368797856 0.28645980906199319804 -0.90418328767003164348 0.020936547086247769139 0.68914727173608414379 0.0026138853750872137124 1.166150890255208239 0.36712674345422091626 0.10879375898014194413 -0.42639021555487516268 1.0225391330499404852 0.19543709302311221276 0.82158977496880136737 0.70274689326758432717 0.26399167371301579532 0.51714039839341507943 1.0979406699823850424 0.13015175557241537296;-0.48491230410803570772 -0.15107432001630194396 -0.7215711663345834026 1.9198886615294949998 -1.9716989346910571701 -1.1928229050416618851 5.3605576158403343001 4.9409576109150474821 -0.54850890295624166182 -1.1641177658740775591 1.6847936336537232549 1.1614967319783595645 -0.78611416664673117172 -2.6967731622612203246 -0.33628747895932403766 -0.5549399372465341207 -0.089406491767548931793 -2.2035480133842173522 0.2880676559694256289 -0.22959611597690582352 -0.21629152311993160573 -0.1410812156937019668 -0.10685075325060457152 -0.03340504399298800664 0.38739569206826429681 -0.5882926009360508468 0.33408920306909306586 -0.28438571179318999915 0.88170053203453657709 0.33590757269948889885 -0.10496576981389522942 -0.4094106944404817261 -0.059938078239558503779 0.0066760311777331804092 -0.15705198502750075673 -0.22029116394486406016 0.13019857329371650745 1.0380111806140408515 0.74168922221877253698 1.6744341873682040411;-0.6214186401954254757 0.043873737651656453951 0.63764395882206448274 2.196303352318972113 -2.6177918967418216667 -1.0123708801167674576 5.4134523271050953852 4.7712102486544045732 -0.41309199694585857499 -1.1812352896458671037 1.6381668377478781906 1.0848989431729414434 -0.7378568353172358929 -2.6927391649832603804 0.044665499281981116408 -0.50869513077311179217 -0.08542997338747430891 -2.1778855798208738292 0.23706382814542290016 -0.19446702230412038492 -0.17794180755653957182 -0.13687942911763043008 -0.15254145285795064901 -0.23326654981111377696 0.97056727025336675396 -0.41921040637620682334 -0.30189871727805156487 -0.19708270000640754072 0.75702300053667093138 -0.054624710556643404913 -0.14539139626650565695 0.051051626828582878648 -0.025614079173020248836 -0.13399390655315748799 0.33792947058715261388 -0.70276716334034794453 -0.29215287996249439395 0.29144886124449120857 -0.36738287350339221549 1.0165656035174750471;-0.58961874451775719841 0.43687402398977076556 -0.12673426050525490871 2.1261146252301919013 0.088530187578167468532 -1.0570883134544875048 5.3962581109043759042 4.8064364136561303908 -0.44222567175359445146 -1.1778239771748275633 1.6336310607363704328 1.0643370095837847433 -0.72383830516424707557 -2.7018452509349297763 0.29956321856110024182 -0.5006844681457400803 0.027456402966843374003 -2.1787348617910828885 0.20879118922211353793 -0.18094501225588363602 -0.1533065240395296569 -0.11759453422211355034 -0.1016047694386537914 -0.094229316618869907174 0.2732957454649532214 0.22683806327454769658 -0.43158043959685016278 0.1264325012802822723 0.79200929582434875798 -0.3109642169798015332 -0.0056349142614038677176 0.35592646859354976074 -0.15371896380716904007 -0.089815788714554214978 -0.048611773694093682319 -0.21827092316177279518 -0.42287881500584462158 -0.65842516974734610624 -0.79118204776683564994 -0.75064670585644022172;-0.38510743829636767677 0.13431775400900333728 0.20683987560982211584 1.7189863371778599799 2.1072941178658304295 -1.3248455361087794202 5.3306087922538081258 5.0826838695934863921 -0.65828949539292991311 -1.1500970811622770462 1.6906701865159718956 1.1513358690899926362 -0.78327042977701444304 -2.7333265837736981929 0.094813356359911116211 -0.54763170370446645485 0.083615946659502504712 -2.2312597514040537483 0.24143375755486837231 -0.20910462233978749369 -0.1650555836822350797 -0.096027630896568683116 -0.019716554936782836049 0.1593255078008077863 -0.61512137874030881068 0.42658992417352975535 0.042627813165830155673 0.20500080593339767288 0.9786388620529206106 -0.09353679944934212287 0.11093981069696939867 0.12094023040728696383 0.13814384439203572508 0.069664488438452853991 0.60330014441823276439 0.4550499289930539093 -0.43111403869789322041 -0.52649137039174054298 -0.067602792460133093178 -1.1426447273196012056;-0.0048558435180417539034 0.40318210073332488852 -0.23157031942206590669 0.93202958618929865331 0.6460071503179364294 -1.7939425272440419068 5.0995193120945163656 5.4796440341519172534 -1.0333762690366743442 -1.079112969491055507 1.7729333430855207521 1.332061836149103895 -0.87729767090836219268 -2.688143736617704338 -0.20137494958089002806 -0.62972452030856995719 0.0019351157942353396611 -2.2641764794922907278 0.31202978202046566247 -0.27098464277213590856 -0.21513114537989400099 -0.12258323314755571742 -0.034368180369306909616 0.14374093928948766807 -0.39851168110789253474 -0.040523167144855570809 0.36532769214321447748 -0.024043875834044655532 1.3117305731438726468 0.20939566499036690872 0.046122315458848615888 -0.24265101188584106695 0.063914271569426681086 0.092382073127489958142 0.33121924704824307062 0.32773377829094119118 0.080221158299890654719 0.34052264102015994407 0.60167696515194191154 0.20461760487416677523;0.57040359850042177126 -0.45895919041159433105 -0.016287656348178827098 -0.26174838488303897588 -1.5387410470197571133 -2.4688487137121368775 4.6718804601617653915 5.9876471616841557832 -1.5804688811325433573 -0.95486504590913967583 1.85330930135154337 1.5279330666508361691 -0.99128494694234348117 -2.6180398648454503707 -0.12313191591268243807 -0.72557567758491081644 -0.058165842100024713057 -2.286648473262823611 0.36336612238815030329 -0.32284805867328741913 -0.24966192834459846606 -0.16775353046111760036 -0.13079104656899404047 -0.073609517849237596221 0.44671267464334268871 -0.36014298708022501883 0.050486228062778304437 -0.16911477368061436644 1.7776230972716611234 0.11670030504376119329 -0.086315866047629197233 -0.14972892158760911507 0.23585557525673200852 -0.034821626740412454926 0.55211264185961439477 -0.28875497220957002664 -0.75010942561204785317 0.49999012829138111957 0.19433958475143597866 0.96393983746476608054;1.3925909270075151891 0.14613110617529484481 0.44086748765877215028 -1.9988033668879809923 -0.75279803565843550484 -3.4130030241137530034 3.9760604730858721823 6.6370610616158742801 -2.3539030032977383833 -0.75931845204793979587 1.9167595434609758787 1.738364557806951094 -1.1037049632276954014 -2.4865079504811729016 0.16088095797481463678 -0.82328353640398932445 -0.013385405938130806938 -2.2809401222681229271 0.39446171440003496844 -0.37504086761205679412 -0.25566296156446827181 -0.17883795336761060257 -0.14372518772675171861 -0.10942292893813218568 0.44189526499818587713 -0.019089576626645926583 -0.30211135648474529702 -6.1180376530727692552e-06 2.4473362447641577866 -0.16739941330661459173 -0.045208655493910059053 0.18975397820059680676 0.70508881173987636437 -0.085368730482367843893 0.73000161037187238922 -0.32053333526400096254 -0.29469228548262277334 -0.23411448881141830314 -0.4995283714080571702 -0.058747880049761683208;2.4615474995066457531 1.0731966661484810821 -0.21195537129604907767 -4.3713406609841429784 1.4375230802251388607 -4.4262605239065999641 2.45706255712758459 6.8210707491263677937 -3.2337533978758439268 -0.37615392483881920915 1.7808396989757915296 1.8299955301567418786 -1.139670361508928309 -2.0093758855646646211 0.11107876984359164874 -0.87543632824186090602 0.059767131261653116958 -2.0046677144616888988 0.42524958425016129437 -0.42133251848781022586 -0.25767467059662718665 -0.16073642973928067845 -0.076062147179688288645 0.098021320963544655847 -0.35856900562090565643 0.3270237580631595864 -0.042370634063709972095 0.16549569994263663153 3.1623764567207253151 -0.12121239840911385288 0.075210116703426116436 0.13968600420840576737 -0.33447188901036412068 0.03594079307983612942 -0.34328237862253913049 0.26734709735191886093 0.38804917892641749289 -0.46571011687022711989 -0.18490933331652098515 -0.90467969272599468855;2.9804967088806604281 0.68984383801537207948 -0.45615992026747803623 -5.8631193017354705788 0.45345717807379609665 -4.2217933167250194515 -0.22205339014092956296 4.8184327710982364223 -3.2678764929742420975 0.22397942500694745238 1.0752043530411219407 1.4679547876922998118 -0.87374875937748230914 -0.70408776306136000578 -0.14188051511924767989 -0.70189708785192972407 0.0037263144253094383773 -1.0036307143755955895 0.37131916390498431735 -0.37681083287272315596 -0.21568343448618726432 -0.12497566518784830603 -0.048495923237873377054 0.10407121524790653722 -0.26908155161585128878 -0.0316562412698976961 0.25614526815326882359 -0.016848196126969135905 2.9957739603738771095 0.14560963375865676461 0.030366510758184982882 -0.16900668344643324237 -0.2938546306489485116 0.064938436908193342134 -0.91127490213913564521 0.2297353544804727199 0.79903896731231671691 0.23894489920512260173 0.42187037582637004762 0.14311166559590951519;3.1092654128398873326 -0.0025336804131409346175 -0.44607049786862618124 -6.6128902654890557855 -1.1062710120725562923 -3.4161547214014968965 -3.013312445312642307 2.0297041733802227981 -2.8415000330232387249 0.82307116967924198736 0.15773925277059408501 0.81538456615518961623 -0.43651479826300854103 0.74107455912549657917 -0.046421773920956796444 -0.39174051719607438926 -0.039672213270171355348 0.1916250563756832781 0.2208825927356293517 -0.24687792312758624624 -0.11423799070992059213 -0.077095751093901543349 -0.069082431533334501261 -0.072927772250411207478 0.35177277011835561549 -0.23153119628581916856 -0.021570891745138088408 -0.1080765826791627443 2.3985893742302590859 0.046145887468731751346 -0.062826055885801493361 -0.060457535614449525729 -1.1082245888107009613 -0.039828397402703621943 0.4279956951826726641 -0.23754103865070602675 -0.25969712970527264462 0.27349881844207812875 0.037395240886920727563 0.60276654183191347158;2.3715514513279547515 0.3203454760868378326 0.86090895024559765947 -5.5398207564424719607 0.02894810878775921914 -1.6332692544940397017 -5.0417185030442164262 -1.3977165392464285798 -1.6156748825608233666 1.2107337697303603985 -0.82515411192734600121 -0.070045829295710265727 0.12681291392493460046 2.0242168408640037747 0.11318494058814379533 0.030855585114740527453 0.009873998059780822803 1.3650969108789479112 -3.6009977185924232912e-05 -0.046371553112884988934 0.033653082950660440087 0.018377575386501823762 0.00086647097658399882536 -0.042198611674758627899 0.095518246873528875329 0.088545625326761676077 -0.16882944957379869555 0.045787675741052885625 1.1262956658485347994 -0.11660607253923099824 -0.0012825406835758848979 0.13647305950268062702 0.28752528069931609922 -0.03284793700727643706 -0.01953153765077991072 -0.086058294273499327809 0.86000526696669277182 -0.25168364516679364584 -0.30577169244701862816 -0.28786362894467965035;0.95623729278951530297 0.51948756569454990206 0.10420149261524427886 -2.8640342325707446314 0.72236170228145057948 0.57226813553060229545 -5.5109688153771756447 -4.2986822103969295483 0.048914813673788595794 1.2266353585006686266 -1.5311481784749356727 -0.90639736469159193355 0.63460850311637384547 2.6649803039455042253 -0.015335796863633097825 0.42822727069849692016 0.022951518465693321325 2.0959321805862880517 -0.19403175155243884697 0.15174144752777396494 0.14989346968464983822 0.10445629387616647832 0.083745915527723965854 0.058534439086524545082 -0.28034819380555436874 0.11725003807695501268 0.083255391114698498733 0.054306701734432492878 -0.43733890238270928252 0.016564966021448839645 0.040919961978209504205 -0.015498801215152679944 -0.66218078430628335429 0.039454691351046830561 -0.939571371209791395 0.193319376215161709 -0.11259299012160421671 -0.07799487968270912841 0.10148211201881141008 -0.28107395603491275304;-0.82042578143289890402 -1.209839545935674332 -0.71470535865110251805 0.8151935292259651078 -0.43316562160170046791 2.7667759653820729326 -4.4381433320020775568 -6.1690964020774590182 1.8102137964004672011 0.8953559961993963201 -1.8298501953952266419 -1.4933463720308877143 0.97066292389792097062 2.6095575208823289515 -0.074023668602095527014 0.71243856594321308684 -0.021180664481120096976 2.2789991284389787829 -0.33762359028843758058 0.31246071224311494641 0.22222563330574002238 0.14434709364846923241 0.08590387722343896526 -0.023483728004016365953 0.054184523969541528721 -0.12724136334634592038 0.073334550117070712583 -0.066052437411953504598 -2.0006995604943051958 0.080216030245305741664 -0.022210927023058203017 -0.091144911687938215406 0.32751715201647679798 0.0012042167227371192075 0.69806651235555028379 -0.046266055192954930186 0.070015807798749010726 0.22973146851401249346 0.16845927288005121958 0.37355414731734881695;-2.8249804416934369833 0.35786920407853800574 0.17447887576438278479 5.3354237253037428701 -0.32989796438149437963 4.4543229475775163451 -1.0369656065070580464 -5.8887505576570937649 3.3256118489440562591 0.06227692842065440243 -1.3636671865167444562 -1.489236951372100215 0.91820707774788812294 1.424300703500056553 0.072823810337111924418 0.72067197021612172669 -0.0051614070919576747823 1.508684920864191259 -0.36674933601057047028 0.36708168697045368001 0.21748505169223539268 0.13080885161438357556 0.062978574607137502439 -0.067499666369664451659 0.1591500094848209701 0.0004399580888199152405 -0.13946464533173832945 -0.00092550223231128493119 -3.1544975597449247395 -0.072044940716793098856 -0.021113355002944023814 0.086018724376757671468 -0.58904215058964826124 -0.038858551571403311675 0.44844909348405576077 -0.1409446454879750843 -0.13893051150840901586 -0.10579902176142862158 -0.22124353424224502129 -0.027467590411838195552;-2.9702232645386281717 0.46702668409322001253 0.72143547927101792094 6.4405007479319076324 0.5638156910440041969 3.0008071497225263791 3.6024076002317295675 -1.1544785847571115145 2.5628249101172788649 -0.93860262972248476032 0.14677178808191865267 -0.47565841050737750484 0.22883099382948737799 -1.0404862440296509529 0.0057929351249495931314 0.233357726758190831 0.016321952140118511226 -0.50194942671615716545 -0.13315334840280260154 0.16733585728992222963 0.053672817775856196398 0.034558768625422661702 0.032941352859416010712 0.044136392141531165245 -0.19593611876226083024 0.11141230071700526649 0.031249998410771338136 0.049709036999011593783 -2.0973565390423702937 -0.0079955131905516865082 0.035837911063655053523 0.010938475605500449714 0.20477583735633198003 0.028580787826091386128 1.0044298442014365502 0.13092156740071836385 -0.2405546795849919095 -0.10657943562705719798 0.016654140951417976957 -0.27644965116990916076;-1.3278423172181856859 0.38918872863365833181 0.3569464705748499056 3.5756970962298355587 -0.23081932275403410637 -0.068805357694435548277 5.5454376613229579007 3.7093871678836687344 0.36082091615863098877 -1.2609133737969346889 1.3920602208961758706 0.70316549472222134032 -0.51584003067709127688 -2.5929529902246311046 -0.050432255927204489021 -0.33507899343321573271 -0.012115383074023466578 -1.9754575073321996026 0.1523106743798699203 -0.10681896125083641114 -0.1257901577797398418 -0.082001509595378024864 -0.050960263264092732494 0.0076073615168954951404 0.043187393734425510994 -0.080378855616870775735 0.059079866674377909397 -0.041734649188578991363 0.085547390074665649595 0.055185798966734610216 -0.011084855320694567485 -0.063330270547168582285 -0.11280596091373699952 0.003272625997971893852 -0.55141758531250162356 -0.013881892242753322494 -0.75635440460762337622 0.14815431655630945107 0.12402450161311985577 0.23011499706825355727;1.1857440623961528203 -0.61597263114011668872 -0.61297676493412811549 -1.6025243381315266156 -0.17443421547027268548 -3.1929408968882433406 4.083287498375963942 6.3736815300068894175 -2.1022093887347303998 -0.8156797729362217364 1.7494669541350265085 1.3438687124043320331 -0.88542222543459192519 -2.6216212590222882639 0.045704677939742623105 -0.6486451837506377327 -0.0044337109404744591556 -2.2549099087578512446 0.29559332187401027303 -0.27771654607958701222 -0.1887366735397577322 -0.1215827610360047939 -0.080595635415350488917 -0.019637863051245367518 0.11590407253239394525 0.0056825290370786426392 -0.084706591168282635573 -0.0020118223056728146668 2.2723897682639728757 -0.043236394184616180891 -0.007694806528970460531 0.052516580292363709837 0.70982131375216073188 -0.022068789423342942413 -0.81364043201281954776 -0.080639113718897412197 -0.14469522523268305014 -0.072438259848811262231 -0.13728630334538052815 -0.032600663695419342114;3.0960885969230163006 -0.11075389045843164748 -0.22221290803526155822 -6.3032223667789013533 0.37247098000113038063 -3.9898941524351640986 -1.3830091440884419995 3.7412181468012963848 -3.1271098910109218494 0.46151994244551813873 0.51386070860331745092 0.71054158510603160348 -0.4250661264635003378 -0.34686075369703783799 -0.010688002757597304601 -0.3576522099043549785 0.018590693014547753775 -0.54120279180119534868 0.16401180067441506472 -0.19267828708618384148 -0.071018403133833063468 -0.035544325734727891253 -0.0097761118497434029012 0.035532259325279459683 -0.12198509815748413698 0.051548122226913531407 0.049880049284029698287 0.042834028527004457121 2.8121090147753156074 -0.0081285049279930538663 0.013049895743368910422 -0.0047687164806849693596 0.28451953923672518298 0.022289348604364139089 -0.2708285570732487102 0.095782307015497586411 0.2667250719198757114 -0.040054138436259531519 0.044558337852561413772 -0.15366961840697515584;1.8812875604010785846 -0.24436987319653760697 -0.030346146282322981891 -4.6083736371876540261 -0.24184280279222408749 -0.73216671948889089361 -5.4312347322250378312 -2.6322412029468487127 -1.0267724930046708831 1.2842848603816545694 -1.1680486051295748684 -0.48040154035749654815 0.37567913236681027556 2.3213480188796808967 -0.016341092038847926382 0.22609966936291273076 -0.0059343060678566069213 1.7034083545622606959 -0.098667365038698523483 0.053568830997631530777 0.095417044484345597821 0.06503535940442670138 0.037666967739508866453 -0.020937793924736849277 0.05849527804609092746 -0.066937235422382931893 0.017108745253360327365 -0.030724512460257077939 0.49463510061706444931 0.025661774374426953027 -0.018681171063675349603 -0.025107633579632120807 -0.33149902843605083547 -0.01241448955505496457 -0.047757257380570926342 -0.036411026182631298087 1.0234784726431802593 0.08631365461918684423 0.052628339397578868808 0.17395674838182642596;-1.1065845665399740572 0.20096156891721603244 0.94645796427922712635 1.5115431428442815953 0.057954247971939459871 3.1339235427634375419 -4.0335688456747451625 -6.1481546531819208923 1.9356575234737585234 0.84711931605549339874 -1.5524664311853473286 -0.94281452471183957442 0.65519733835803983801 2.6877381178265000727 0.031416031754483778049 0.46026687609688932135 -0.012009188569750041051 2.1844390545750629329 -0.16664623977800327448 0.15897027581144190789 0.095577271862356247278 0.05098705469029392312 0.026955836672411314509 -0.0050459478749143790721 -0.021109726912521928344 0.064248669585419845851 -0.066434348586770608502 -0.0059154792879896186605 -2.2159248328872451772 -0.009629433265644842671 0.024454190146184218158 0.033422668989953829843 -0.28465262892152615182 -0.0011416462794778569397 0.15728245783605704355 -0.0157583237267338791 -0.57739692664817265921 -0.085355075666390445299 -0.093472946351190050462 -0.1139006709857445232;-3.1146828971851108214 -1.0322536240541846375 -0.67693320757435149204 6.5057945872102171947 0.09401695032171336619 3.6565737005657839021 2.3471204707446857718 -2.7482962251169120727 2.9638067585901612944 -0.66980586659696583762 -0.20227073058119035553 -0.49454710349919367429 0.28272625138099827247 -0.14761396929945977408 -0.042663279023876413132 0.26733218033379790857 -0.018712393574785671224 0.13233816314270002712 -0.16157856601766626414 0.18567793410016067424 0.081568024730486715645 0.054904986596833599277 0.042345112855317466882 0.021098069835758601759 -0.10017100543420223713 0.024057907632129855308 0.037147774420759185898 -0.022184192534381034362 -2.5888157655714891803 0.054057014582330670249 0.030470390778065643139 -0.050233972105989226076 -0.50594261678624452561 0.028816519842519355138 0.94304438655482958342 0.044333903559203913236 -0.2812641274525550239 0.057206067432973253806 0.083940086086837076285 0.023816351603142518062;-0.9395755889437094055 0.48775133592394115389 0.64379101874210398204 2.6559817643864174208 -0.18040029901110016253 -0.66736672832313848058 5.2393029996790598801 3.9615943089585465842 0.12415936218270451352 -1.2430926678799858465 1.3342676016744119405 0.64338551515280018034 -0.47815836535665873219 -2.523592577562761452 0.0082095314378692572921 -0.32330020757687794042 -0.019537887200087242223 -1.9198786129777856146 0.18524131674416316473 -0.13464762487212028619 -0.15659491153167701127 -0.10811179789459772482 -0.069143786950253999235 0.0031386856728230485766 0.04436697240348137089 0.010176906331845389161 -0.047976766007874246944 -0.043080123040789654321 0.46950643139151626571 0.02024608465085251871 0.010047296604204771983 0.0022300769429687804235 0.96595940492964227353 -0.0089608264864341289485 0.053033976903829445348 -0.05052580286339894422 -0.53418505582631137241 0.0092389129180608462605 -0.034959642407916116658 0.062361285548299734416;2.6994934799747456466 -0.36187411213382181252 0.079354083122638779946 -5.2665424482733325107 0.19497377461198028836 -4.57030807698283148 1.1198544192703627775 5.5679897805757239126 -2.8707652263954921423 -0.2658122397455737751 0.87016030607168826094 0.4742784801459544175 -0.31502045919187826595 -1.5856074653715916956 -0.00088045407492762380822 -0.20801453564621225079 0.0079603522029846034841 -1.3307067151945077832 -0.048288536125024414392 0.0021176601255654681211 0.089271206512593098692 0.083560791134324519103 0.063788609896950676514 -0.0049167354874299924045 -0.046089861394047554333 0.016143929973295955554 0.018264289934476506116 0.036304346227870626374 3.1709924228425969694 -0.016739269335266458022 0.0086621057007342135148 0.0059825595621907099245 -0.19505139476564831158 0.013445060819768728591 0.011953723508568818434 0.039533815484057918677 -0.62705487716763697037 -0.038494011508901318508 -0.0064235592242667923293 -0.10885262829920876182;2.1130470901489055713 -0.0038232097344132682029 0.22271542900190544056 -4.7512868051341650144 0.07805465509482513442 -1.0343276988538461225 -4.7576052485208331078 -1.3638956294473327802 -1.6676916826793053428 1.2839929668066847324 -0.67603857364064590119 0.0080389810970810104962 0.055473176822572300981 1.723819077436902214 0.038537901384859268861 -0.0075694534894283687851 -0.056684927143490916601 1.1437959418525864841 -0.024140791703803010648 -0.031509839936622478784 0.068928022348316186907 0.061136852453823643805 0.05231601695219895154 0.0033185805266064821728 -0.055055006784665731778 0.043809131337807505346 -0.047627219832758443951 -0.10560308527620385077 0.78738135083244975565 0.11812799298594421626 0.070317930262613986825 -0.019429135319839474505 -1.1486804796072700441 -0.015439585979573667435 0.51975827548233577424 0.044532173610777499306 -0.15350976065808694115 -0.044386899746569723202 0.041976177284118898481 0.01414566263817400131;-1.7251044507034616338 -0.37987740127091951248 -0.37642529469420871191 3.3513864900757002196 0.16272582434056381828 4.0066948060539147036 -2.537745568067514057 -5.2233575612307365788 1.7044473477676562734 0.82860405471237053021 -0.76219812193100278108 -0.21607813983422763382 0.14299423065676583611 1.6359750253869214109 -0.0093760367132223430831 0.072760908980474187091 -0.15613711705231977933 1.2766330694467651341 0.050631442965059877959 -0.039121273648905184606 -0.0515466724436957624 -0.038633607672176141501 0.00048670058958929021675 0.067303885249317699224 -0.25821129797549330354 0.25535276392730971162 -0.15430141090038287932 -0.17804530876292734565 -2.703872078858472694 0.18408697058582973449 0.1802177403509271636 -0.084525460688597564562 -0.51754484907238018643 0.076862342704425518081 -0.71974955512457483575 0.029806274856140086565 -0.7127125111875700636 -0.082131505204584703828 -0.039395510396482383286 -0.11371478688965391823;-2.4401970681402418428 0.33561957187713414852 0.028958182118259550436 5.0500257496037015414 -0.11855097696754052228 1.6750281077631621329 3.6834218059224164143 -0.44718902197674792465 2.4113358032723142266 -1.1584905068803970085 0.29973101398269758056 -0.026974037678343838753 0.047817774310278879368 -0.71416541899640584301 -0.071668017353667998193 0.14018554128832591554 -0.18355937247399736756 -0.41938612415394432853 -0.2454524715525836509 0.24421397781502682256 0.17151471930133588284 0.12714148280769099753 0.079067417645326945608 -0.03288334780740109764 0.053979937544895606472 -0.02547050675679426307 -0.053627294788160563555 -0.17872751151307653128 -1.3014883016851543918 0.27032560691376955608 0.22802206531884874896 -0.12999305717799902737 0.30835803552212442957 0.072311367914786511824 0.15822528819053857663 -0.020782813606380297344 0.071491503301036068985 0.091792075016802490706 0.042046289859178236081 0.090409630977617075343;1.3654572525416845963 0.34564635904039020531 0.14845883259784425912 -2.9161461491810363178 0.052519020578350276984 -3.7629221430640988899 2.3930153832470768549 4.2332302415141933594 -0.87666301963965431732 -1.0442096601918788856 0.84166229758836308417 1.0796871799201406272 -0.59136447488041177234 -0.53322096316666844906 0.09339569090962029918 -0.53353696595126531843 0.069470106076268592354 -0.73371704659616576727 0.52735775046729060911 -0.45867993722074551499 -0.39755250631799171623 -0.27339385258434500958 -0.16557954512087191823 0.046441574350183062458 -0.034814517666382105432 0.079454996013286038892 -0.05138604795979248574 -0.029828844423354601567 2.4459033658574416137 -0.004936917399890711558 -0.025239821725753626425 0.11151756025306097664 0.22486556245140132404 -0.099491122013193877827 0.7441245280915713689 0.0028334510114933508275 -0.32808936417328199431 -0.081750541106737129038 -0.047443734904902681859 -0.062399635444224395286;2.2670681241733547928 0.52566624791817551099 -0.3186690855682789425 -4.4350518970501182636 0.21199778782615158468 -1.2901156203502970321 -3.2537162017508114431 0.70938355000029529318 -2.44956315422811155 1.1209313643651015457 -0.14189604550800472005 0.17601897089192694579 -0.097420533254281849178 0.54611187350864698331 0.19276766388974841959 -0.011285642341802326269 0.29590597009307861853 0.26050298326616333489 -0.43160253304590939782 0.26156987451589625016 0.47613909419325545214 0.39370033517363489661 0.27922394594430283155 -0.069132626791517798326 -0.0047243594628036105626 -0.073421514619431527127 0.07145065741924555569 0.13697848259267592086 1.1233471426207963795 -0.17776320697839731455 -0.23233673520056702388 0.28400153694878660371 -0.035505567108754541861 -0.25524910299856090612 -0.097834271441555265003 0.060710323148354006229 1.1772921665251767642 -0.10992559856439161614 0.0083559145833645535884 -0.087599867075464729615;-1.5786664571449053884 0.79421874386135848933 0.10528513223993367365 3.7429827589424990997 -0.086953964268415853689 4.0379145331538035535 -1.5479523039223839209 -3.4861069779998992146 0.45743092718662425877 1.1774159751305426358 -0.022378403970342408691 -0.066169580807941871803 0.015211665877488306925 -0.12288502590141475723 0.14320922906734354085 0.16502504339670034939 0.11729322143038925508 0.012713524631010941768 -0.2975923047110203834 0.355807572801689731 0.053551152264576809547 -0.079245754720557254336 -0.10079582363843050952 0.086460424465522947579 -0.1902141295864503423 0.20112962126231803683 -0.11899154700201930446 -0.132532943203797271 -2.5435787631318262925 0.084819403922804390006 -0.0024753421238667468879 0.1948678513762210629 -0.91364676320358595429 -0.19971066754918273545 -0.32792346642600511686 -0.040731516408089987746 -0.01652957972346706661 -0.047696238076173146092 -0.063308219362999212931 -0.012419449264720570925;-1.5363858415025322124 -0.13719933718163854208 -0.82560826587293345558 2.6264824037087901587 0.0049095894141618400333 -0.19713204132105582866 2.9964413281888391261 -0.051819251032465110662 2.1255935132418799505 -1.2315764051650810451 0.15790718491469279972 0.32911251842298716586 -0.16598735798773567307 0.15652788858720437237 0.081352614884059426537 -0.17704523552909515183 0.29437450039734996965 0.029751385343132936978 0.18024490701045145502 -0.19679066167570613555 -0.035642525957629941913 0.049558669894125793876 0.03901993617446283813 -0.1269509793355483307 0.39757760388844259891 -0.35841661598601326499 0.19663430065468034957 0.28398972115493059665 -0.19500632296548423006 -0.29634479464940699511 -0.28361207462842225047 0.22171485187143447071 0.025403866668307351073 -0.17365301406769662051 0.34025010661343702001 0.013367707593785100456 0.55041626408622223998 0.017081454384487666787 0.038360629632716754245 0.034776735117280938026;1.5666695829176338073 0.64237324910027127078 -0.48875476205512924377 -3.9478197342896286237 0.077471682959567161886 -3.2965099470491252553 0.60428082182355302709 3.0967530708896551239 -0.67899682614087497612 -0.98172976804837108755 0.0056133333341529482313 -0.19673338929652156581 0.42404499872846840303 -0.016992390475578329767 0.064425294947806258095 0.49536597748538579999 0.31481487971390126335 0.034348638185301927361 -0.26322713423161409052 0.46826252844304416811 -0.19974766904961391289 -0.37989559521119753427 -0.36221384837041287197 0.12420496883562555379 -0.1193729125190988033 0.36020031383469319763 -0.33389236998025223491 -0.19572205545991561149 2.051492939405909155 -0.0096556841048859587406 -0.2478349752729990807 0.21235359495171499122 1.061962586033324607 -0.06996083643555786602 -0.73908731944650440937 -0.047220188041686074476 0.68981008203801807976 -0.11879917141455552387 -0.17340925311239180351 -0.21604533083769769664;0.58629880287363034252 -0.64731368225337826416 0.35235967041707166869 -0.10762779204258957066 0.23277950447542522516 1.9252992059131517344 -2.5607716594218938866 -1.1907531289039068323 -1.3916760432423815885 1.3310702344438607447 -0.037529401264121908799 0.2187283834912507885 -0.12006466573362731265 0.31668120273715494317 -0.046660202062264399814 -0.1699875150042495231 0.14789583725828059357 0.14942061654084093369 0.33610940412173079261 -0.31620819842465569538 -0.14319063979486887361 0.027765605655357440684 0.13329527479151181968 -0.011187514997094614305 -0.19753892661955499421 0.30388214678164304772 -0.25097915570150702846 -0.036918601826671379462 -0.84820442864039835573 -0.13815920699285416662 -0.24144936825675561431 -0.015215065511662460504 -0.54786035921313469554 0.12458385612134542653 0.58117443609072383381 0.010198514459882368835 0.35707998760064013632 -0.1079891934792280711 -0.11427075552946411308 -0.23872932110313244136];

% Output 1
y1_step1.ymin = -1;
